#ifndef SRC_PRECOMP_GAUSS_H
#define SRC_PRECOMP_GAUSS_H

#if QUAD_ORDER == 1
const double host_legendre_points[] = {
        0.0};
const double host_gauss_weights[] = {
        2.0};
#endif

#if QUAD_ORDER == 2
const double host_legendre_points[] = {
       -0.577350269189626,  0.577350269189626};
const double host_gauss_weights[] = {
        1.0,  1.0};
#endif

#if QUAD_ORDER == 3
const double host_legendre_points[] = {
        -7.745966692414833e-01,   7.711387951803150e-17,
         7.745966692414833e-01};
const double host_gauss_weights[] = {
        0.555555555555556,  0.888888888888889,  0.555555555555555};
#endif

#if QUAD_ORDER == 4
const double host_legendre_points[] = {
       -0.861136311594052, -0.339981043584856,  0.339981043584856,
        0.861136311594053};
const double host_gauss_weights[] = {
        0.347854845137454,  0.652145154862547,  0.652145154862546,
        0.347854845137454};
#endif

#if QUAD_ORDER == 5
const double host_legendre_points[] = {
        -9.061798459386636e-01,  -5.384693101056827e-01,
        -5.881919023253004e-17,   5.384693101056830e-01,
         9.061798459386639e-01};
const double host_gauss_weights[] = {
        0.236926885056189,  0.478628670499366,  0.568888888888888,
        0.478628670499366,  0.236926885056189};
#endif

#if QUAD_ORDER == 6
const double host_legendre_points[] = {
       -0.932469514203153, -0.661209386466265, -0.238619186083197,
        0.238619186083197,  0.661209386466265,  0.932469514203152};
const double host_gauss_weights[] = {
        0.171324492379172,  0.360761573048138,  0.467913934572691,
        0.467913934572691,  0.360761573048138,  0.17132449237917 };
#endif

#if QUAD_ORDER == 7
const double host_legendre_points[] = {
        -9.491079123427586e-01,  -7.415311855993938e-01,
        -4.058451513773972e-01,  -5.342278769392458e-17,
         4.058451513773972e-01,   7.415311855993946e-01,
         9.491079123427582e-01};
const double host_gauss_weights[] = {
        0.129484966168871,  0.279705391489276,  0.381830050505119,
        0.417959183673469,  0.381830050505119,  0.279705391489277,
        0.129484966168869};
#endif

#if QUAD_ORDER == 8
const double host_legendre_points[] = {
       -0.960289856497537, -0.796666477413627, -0.525532409916329,
       -0.18343464249565 ,  0.18343464249565 ,  0.525532409916329,
        0.796666477413627,  0.960289856497538};
const double host_gauss_weights[] = {
        0.101228536290377,  0.222381034453374,  0.313706645877887,
        0.362683783378362,  0.362683783378362,  0.313706645877887,
        0.222381034453375,  0.101228536290377};
#endif

#if QUAD_ORDER == 9
const double host_legendre_points[] = {
        -9.681602395076258e-01,  -8.360311073266354e-01,
        -6.133714327005907e-01,  -3.242534234038093e-01,
        -4.790736685055647e-17,   3.242534234038090e-01,
         6.133714327005902e-01,   8.360311073266353e-01,
         9.681602395076262e-01};
const double host_gauss_weights[] = {
        0.081274388361574,  0.180648160694858,  0.260610696402936,
        0.312347077040003,  0.33023935500126 ,  0.312347077040003,
        0.260610696402935,  0.180648160694858,  0.081274388361574};
#endif

#if QUAD_ORDER == 10
const double host_legendre_points[] = {
       -0.973906528517172, -0.865063366688984, -0.679409568299025,
       -0.433395394129247, -0.148874338981631,  0.148874338981631,
        0.433395394129247,  0.679409568299025,  0.865063366688985,
        0.973906528517172};
const double host_gauss_weights[] = {
        0.066671344308687,  0.14945134915058 ,  0.219086362515984,
        0.269266719309996,  0.295524224714753,  0.295524224714753,
        0.269266719309997,  0.219086362515982,  0.149451349150581,
        0.066671344308688};
#endif

#if QUAD_ORDER == 11
const double host_legendre_points[] = {
        -9.782286581460568e-01,  -8.870625997680944e-01,
        -7.301520055740494e-01,  -5.190961292068124e-01,
        -2.695431559523447e-01,   1.336848950008609e-16,
         2.695431559523453e-01,   5.190961292068118e-01,
         7.301520055740491e-01,   8.870625997680953e-01,
         9.782286581460566e-01};
const double host_gauss_weights[] = {
        0.055668567116174,  0.125580369464903,  0.186290210927735,
        0.23319376459199 ,  0.262804544510246,  0.272925086777901,
        0.262804544510247,  0.23319376459199 ,  0.186290210927735,
        0.125580369464905,  0.055668567116173};
#endif

#if QUAD_ORDER == 12
const double host_legendre_points[] = {
       -0.981560634246718, -0.904117256370475, -0.769902674194303,
       -0.587317954286616, -0.36783149899818 , -0.125233408511469,
        0.125233408511469,  0.36783149899818 ,  0.587317954286617,
        0.769902674194305,  0.904117256370475,  0.981560634246718};
const double host_gauss_weights[] = {
        0.04717533638651 ,  0.106939325995321,  0.160078328543346,
        0.203167426723065,  0.233492536538355,  0.249147045813403,
        0.249147045813403,  0.233492536538356,  0.203167426723065,
        0.160078328543347,  0.106939325995319,  0.047175336386512};
#endif

#if QUAD_ORDER == 13
const double host_legendre_points[] = {
        -9.841830547185889e-01,  -9.175983992229783e-01,
        -8.015780907333109e-01,  -6.423493394403412e-01,
        -4.484927510364469e-01,  -2.304583159551345e-01,
        -1.709286824364116e-16,   2.304583159551348e-01,
         4.484927510364466e-01,   6.423493394403399e-01,
         8.015780907333101e-01,   9.175983992229783e-01,
         9.841830547185891e-01};
const double host_gauss_weights[] = {
        0.040484004765317,  0.092121499837727,  0.138873510219787,
        0.178145980761947,  0.207816047536887,  0.226283180262896,
        0.232551553230873,  0.226283180262897,  0.207816047536888,
        0.178145980761945,  0.138873510219787,  0.092121499837729,
        0.040484004765315};
#endif

#if QUAD_ORDER == 14
const double host_legendre_points[] = {
       -0.986283808696811, -0.928434883663573, -0.827201315069767,
       -0.687292904811686, -0.515248636358154, -0.31911236892789 ,
       -0.108054948707343,  0.108054948707343,  0.31911236892789 ,
        0.515248636358154,  0.687292904811686,  0.827201315069766,
        0.928434883663573,  0.986283808696811};
const double host_gauss_weights[] = {
        0.03511946033175 ,  0.080158087159763,  0.121518570687903,
        0.157203167158194,  0.185538397477937,  0.205198463721296,
        0.215263853463158,  0.215263853463157,  0.205198463721295,
        0.185538397477938,  0.157203167158193,  0.121518570687904,
        0.08015808715976 ,  0.035119460331752};
#endif

#if QUAD_ORDER == 15
const double host_legendre_points[] = {
        -9.879925180204820e-01,  -9.372733924007047e-01,
        -8.482065834104270e-01,  -7.244177313601695e-01,
        -5.709721726085384e-01,  -3.941513470775639e-01,
        -2.011940939974345e-01,   2.791711561900876e-16,
         2.011940939974341e-01,   3.941513470775634e-01,
         5.709721726085388e-01,   7.244177313601713e-01,
         8.482065834104260e-01,   9.372733924007053e-01,
         9.879925180204863e-01};
const double host_gauss_weights[] = {
        0.030753241996113,  0.070366047488111,  0.107159220467172,
        0.139570677926154,  0.166269205816995,  0.186161000015563,
        0.198431485327112,  0.202578241925561,  0.198431485327112,
        0.186161000015563,  0.166269205816993,  0.139570677926154,
        0.107159220467172,  0.070366047488107,  0.030753241996119};
#endif

#if QUAD_ORDER == 16
const double host_legendre_points[] = {
       -0.989400934991651, -0.944575023073233, -0.865631202387833,
       -0.755404408355004, -0.617876244402645, -0.458016777657227,
       -0.281603550779259, -0.095012509837638,  0.095012509837637,
        0.281603550779259,  0.458016777657227,  0.617876244402644,
        0.755404408355004,  0.865631202387833,  0.944575023073231,
        0.98940093499165 };
const double host_gauss_weights[] = {
        0.027152459411754,  0.062253523938647,  0.095158511682494,
        0.124628971255535,  0.149595988816577,  0.169156519395002,
        0.182603415044923,  0.189450610455068,  0.189450610455068,
        0.182603415044923,  0.169156519395002,  0.149595988816576,
        0.124628971255535,  0.095158511682493,  0.062253523938647,
        0.027152459411755};
#endif

#if QUAD_ORDER == 17
const double host_legendre_points[] = {
        -9.905754753144179e-01,  -9.506755217687677e-01,
        -8.802391537269867e-01,  -7.815140038968008e-01,
        -6.576711592166908e-01,  -5.126905370864768e-01,
        -3.512317634538766e-01,  -1.784841814958480e-01,
         6.137730526584243e-17,   1.784841814958477e-01,
         3.512317634538763e-01,   5.126905370864769e-01,
         6.576711592166906e-01,   7.815140038968019e-01,
         8.802391537269860e-01,   9.506755217687674e-01,
         9.905754753144177e-01};
const double host_gauss_weights[] = {
        0.024148302868547,  0.055459529373989,  0.085036148317179,
        0.111883847193402,  0.135136368468526,  0.154045761076811,
        0.16800410215645 ,  0.176562705366993,  0.179446470356206,
        0.176562705366993,  0.16800410215645 ,  0.15404576107681 ,
        0.135136368468525,  0.111883847193403,  0.08503614831718 ,
        0.055459529373985,  0.024148302868549};
#endif

#if QUAD_ORDER == 18
const double host_legendre_points[] = {
       -0.991565168420932, -0.955823949571398, -0.892602466497556,
       -0.803704958972523, -0.691687043060353, -0.559770831073948,
       -0.411751161462843, -0.251886225691505, -0.084775013041735,
        0.084775013041735,  0.251886225691505,  0.411751161462843,
        0.559770831073948,  0.691687043060354,  0.803704958972524,
        0.892602466497556,  0.955823949571398,  0.99156516842093 };
const double host_gauss_weights[] = {
        0.021616013526481,  0.049714548894971,  0.076425730254893,
        0.100942044106286,  0.122555206711477,  0.140642914670651,
        0.154684675126266,  0.164276483745833,  0.169142382963144,
        0.169142382963144,  0.164276483745833,  0.154684675126266,
        0.140642914670651,  0.122555206711479,  0.100942044106289,
        0.076425730254889,  0.049714548894968,  0.021616013526485};
#endif

#if QUAD_ORDER == 19
const double host_legendre_points[] = {
        -9.924068438435840e-01,  -9.602081521348282e-01,
        -9.031559036148176e-01,  -8.227146565371435e-01,
        -7.209661773352299e-01,  -6.005453046616815e-01,
        -4.645707413759601e-01,  -3.165640999636301e-01,
        -1.603586456402254e-01,   1.230203134654223e-16,
         1.603586456402253e-01,   3.165640999636292e-01,
         4.645707413759608e-01,   6.005453046616810e-01,
         7.209661773352292e-01,   8.227146565371432e-01,
         9.031559036148173e-01,   9.602081521348288e-01,
         9.924068438435859e-01};
const double host_gauss_weights[] = {
        0.019461788229728,  0.044814226765699,  0.069044542737641,
        0.09149002162245 ,  0.111566645547334,  0.128753962539335,
        0.142606702173605,  0.15276604206586 ,  0.158968843393955,
        0.161054449848783,  0.158968843393954,  0.15276604206586 ,
        0.142606702173608,  0.128753962539336,  0.111566645547334,
        0.091490021622451,  0.069044542737641,  0.0448142267657  ,
        0.019461788229727};
#endif

#if QUAD_ORDER == 20
const double host_legendre_points[] = {
       -0.993128599185094, -0.963971927277914, -0.912234428251326,
       -0.839116971822219, -0.746331906460152, -0.636053680726515,
       -0.510867001950828, -0.37370608871542 , -0.227785851141645,
       -0.076526521133497,  0.076526521133498,  0.227785851141644,
        0.373706088715419,  0.510867001950827,  0.636053680726514,
        0.74633190646015 ,  0.839116971822219,  0.912234428251325,
        0.963971927277913,  0.993128599185094};
const double host_gauss_weights[] = {
        0.017614007139154,  0.040601429800385,  0.062672048334111,
        0.083276741576705,  0.101930119817237,  0.118194531961519,
        0.131688638449176,  0.142096109318382,  0.149172986472602,
        0.152753387130725,  0.152753387130726,  0.149172986472603,
        0.142096109318382,  0.131688638449176,  0.118194531961519,
        0.101930119817241,  0.083276741576705,  0.062672048334109,
        0.040601429800384,  0.017614007139152};
#endif

#if QUAD_ORDER == 21
const double host_legendre_points[] = {
        -9.937521706203899e-01,  -9.672268385663062e-01,
        -9.200993341504011e-01,  -8.533633645833184e-01,
        -7.684399634756771e-01,  -6.671388041974124e-01,
        -5.516188358872194e-01,  -4.243421202074388e-01,
        -2.880213168024006e-01,  -1.455618541608953e-01,
         3.347125989251844e-16,   1.455618541608946e-01,
         2.880213168024011e-01,   4.243421202074389e-01,
         5.516188358872199e-01,   6.671388041974128e-01,
         7.684399634756783e-01,   8.533633645833184e-01,
         9.200993341504020e-01,   9.672268385663076e-01,
         9.937521706203890e-01};
const double host_gauss_weights[] = {
        0.016017228257774,  0.036953789770853,  0.057134425426856,
        0.076100113628381,  0.093444423456034,  0.108797299167147,
        0.121831416053732,  0.132268938633337,  0.139887394791074,
        0.144524403989971,  0.14608113364969 ,  0.14452440398997 ,
        0.139887394791074,  0.132268938633338,  0.121831416053728,
        0.108797299167148,  0.093444423456034,  0.076100113628378,
        0.057134425426858,  0.036953789770852,  0.016017228257775};
#endif

#if QUAD_ORDER == 22
const double host_legendre_points[] = {
       -0.994294585482398, -0.970060497835427, -0.926956772187173,
       -0.8658125777203  , -0.787816805979208, -0.694487263186683,
       -0.58764040350691 , -0.469355837986757, -0.341935820892084,
       -0.207860426688221, -0.069739273319722,  0.069739273319722,
        0.207860426688222,  0.341935820892084,  0.469355837986757,
        0.587640403506912,  0.694487263186683,  0.787816805979208,
        0.8658125777203  ,  0.926956772187175,  0.970060497835428,
        0.994294585482399};
const double host_gauss_weights[] = {
        0.014627995298271,  0.033774901584814,  0.052293335152686,
        0.069796468424519,  0.085941606217068,  0.100414144442879,
        0.112932296080541,  0.123252376810512,  0.131173504787061,
        0.136541498346015,  0.139251872855632,  0.139251872855632,
        0.136541498346015,  0.131173504787062,  0.123252376810513,
        0.11293229608054 ,  0.100414144442879,  0.085941606217068,
        0.069796468424518,  0.052293335152686,  0.033774901584813,
        0.014627995298273};
#endif

#if QUAD_ORDER == 23
const double host_legendre_points[] = {
        -9.947693349975537e-01,  -9.725424712181150e-01,
        -9.329710868260159e-01,  -8.767523582704425e-01,
        -8.048884016188386e-01,  -7.186613631319507e-01,
        -6.196098757636461e-01,  -5.095014778460079e-01,
        -3.903010380302910e-01,  -2.641356809703452e-01,
        -1.332568242984661e-01,  -2.433121366746065e-17,
         1.332568242984662e-01,   2.641356809703446e-01,
         3.903010380302908e-01,   5.095014778460071e-01,
         6.196098757636461e-01,   7.186613631319497e-01,
         8.048884016188393e-01,   8.767523582704417e-01,
         9.329710868260149e-01,   9.725424712181167e-01,
         9.947693349975509e-01};
const double host_gauss_weights[] = {
        0.013411859487144,  0.030988005856978,  0.048037671731084,
        0.064232421408528,  0.079281411776719,  0.092915766060034,
        0.104892091464543,  0.11499664022241 ,  0.123049084306729,
        0.128905722188083,  0.132462039404697,  0.133654572186107,
        0.132462039404697,  0.128905722188081,  0.12304908430673 ,
        0.114996640222411,  0.104892091464541,  0.092915766060036,
        0.07928141177672 ,  0.064232421408526,  0.048037671731084,
        0.030988005856981,  0.013411859487141};
#endif

#if QUAD_ORDER == 24
const double host_legendre_points[] = {
       -0.995187219997024, -0.97472855597131 , -0.938274552002734,
       -0.886415527004402, -0.820001985973904, -0.740124191578555,
       -0.648093651936977, -0.545421471388839, -0.433793507626045,
       -0.315042679696163, -0.191118867473617, -0.064056892862606,
        0.064056892862606,  0.191118867473617,  0.315042679696163,
        0.433793507626045,  0.545421471388839,  0.648093651936976,
        0.740124191578554,  0.820001985973903,  0.886415527004401,
        0.938274552002733,  0.97472855597131 ,  0.99518721999702 };
const double host_gauss_weights[] = {
        0.012341229799988,  0.028531388628931,  0.044277438817422,
        0.059298584915437,  0.073346481411077,  0.086190161531955,
        0.097618652104114,  0.107444270115965,  0.115505668053725,
        0.121670472927803,  0.125837456346829,  0.127938195346752,
        0.127938195346752,  0.125837456346828,  0.121670472927804,
        0.115505668053726,  0.107444270115966,  0.097618652104112,
        0.086190161531952,  0.07334648141108 ,  0.059298584915437,
        0.04427743881742 ,  0.028531388628935,  0.012341229799986};
#endif

#if QUAD_ORDER == 25
const double host_legendre_points[] = {
        -9.955569697904978e-01,  -9.766639214595170e-01,
        -9.429745712289737e-01,  -8.949919978782737e-01,
        -8.334426287608334e-01,  -7.592592630373558e-01,
        -6.735663684734693e-01,  -5.776629302412222e-01,
        -4.730027314457144e-01,  -3.611723058093874e-01,
        -2.438668837209887e-01,  -1.228646926107105e-01,
        -5.646118911317963e-17,   1.228646926107103e-01,
         2.438668837209885e-01,   3.611723058093878e-01,
         4.730027314457154e-01,   5.776629302412221e-01,
         6.735663684734688e-01,   7.592592630373579e-01,
         8.334426287608340e-01,   8.949919978782751e-01,
         9.429745712289735e-01,   9.766639214595184e-01,
         9.955569697904975e-01};
const double host_gauss_weights[] = {
        0.011393798501027,  0.026354986615033,  0.040939156701308,
        0.054904695975833,  0.068038333812355,  0.080140700335   ,
        0.091028261982965,  0.100535949067051,  0.108519624474263,
        0.114858259145712,  0.119455763535785,  0.12224244299031 ,
        0.123176053726715,  0.12224244299031 ,  0.119455763535784,
        0.114858259145711,  0.108519624474263,  0.100535949067051,
        0.091028261982963,  0.080140700335002,  0.068038333812356,
        0.054904695975835,  0.040939156701307,  0.026354986615033,
        0.011393798501024};
#endif

#if QUAD_ORDER == 26
const double host_legendre_points[] = {
       -0.995885701145616, -0.97838544595647 , -0.947159066661714,
       -0.902637861984306, -0.845445942788498, -0.776385948820678,
       -0.696427260419957, -0.606692293017617, -0.508440714824505,
       -0.403051755123487, -0.292004839485957, -0.176858820356891,
       -0.059230093429313,  0.059230093429313,  0.17685882035689 ,
        0.292004839485956,  0.403051755123486,  0.508440714824506,
        0.606692293017618,  0.696427260419957,  0.776385948820679,
        0.845445942788499,  0.902637861984307,  0.947159066661712,
        0.97838544595647 ,  0.995885701145617};
const double host_gauss_weights[] = {
        0.010551372617341,  0.024417851092634,  0.037962383294366,
        0.050975825297144,  0.063274046329577,  0.074684149765661,
        0.085045894313486,  0.094213800355913,  0.102059161094426,
        0.108471840528578,  0.113361816546319,  0.116660443485297,
        0.118321415279261,  0.118321415279263,  0.116660443485296,
        0.11336181654632 ,  0.108471840528577,  0.102059161094426,
        0.094213800355914,  0.085045894313486,  0.07468414976566 ,
        0.063274046329576,  0.050975825297148,  0.037962383294359,
        0.024417851092632,  0.010551372617347};
#endif

#if QUAD_ORDER == 27
const double host_legendre_points[] = {
        -9.961792628889913e-01,  -9.799234759615024e-01,
        -9.509005578147046e-01,  -9.094823206774906e-01,
        -8.562079080182942e-01,  -7.917716390705086e-01,
        -7.170134737394254e-01,  -6.329079719464964e-01,
        -5.405515645794565e-01,  -4.411482517500272e-01,
        -3.359939036385093e-01,  -2.264593654395368e-01,
        -1.139725856095299e-01,  -5.775939832919014e-17,
         1.139725856095301e-01,   2.264593654395365e-01,
         3.359939036385077e-01,   4.411482517500264e-01,
         5.405515645794563e-01,   6.329079719464946e-01,
         7.170134737394234e-01,   7.917716390705081e-01,
         8.562079080182949e-01,   9.094823206774919e-01,
         9.509005578147051e-01,   9.799234759615008e-01,
         9.961792628889904e-01};
const double host_gauss_weights[] = {
        0.009798996051298,  0.022686231596182,  0.035297053757416,
        0.047449412520613,  0.058983536859835,  0.069748823766249,
        0.079604867773058,  0.088423158543758,  0.096088727370029,
        0.102501637817745,  0.107578285788535,  0.111252488356846,
        0.113476346108965,  0.114220867378957,  0.113476346108965,
        0.111252488356846,  0.107578285788533,  0.102501637817746,
        0.096088727370028,  0.088423158543756,  0.079604867773056,
        0.069748823766245,  0.058983536859836,  0.047449412520614,
        0.035297053757421,  0.02268623159618 ,  0.009798996051296};
#endif

#if QUAD_ORDER == 28
const double host_legendre_points[] = {
       -0.996442497573955, -0.981303165370874, -0.954259280628939,
       -0.915633026392133, -0.865892522574394, -0.805641370917179,
       -0.735610878013632, -0.656651094038866, -0.569720471811402,
       -0.475874224955118, -0.376251516089079, -0.272061627635178,
       -0.164569282133381, -0.055079289884034,  0.055079289884034,
        0.16456928213338 ,  0.272061627635178,  0.376251516089079,
        0.475874224955118,  0.569720471811401,  0.656651094038865,
        0.735610878013631,  0.805641370917179,  0.865892522574394,
        0.915633026392132,  0.954259280628936,  0.981303165370872,
        0.996442497573954};
const double host_gauss_weights[] = {
        0.009124282593094,  0.021132112592771,  0.032901427782305,
        0.044272934759003,  0.055107345675717,  0.065272923967001,
        0.074646214234569,  0.0831134172289  ,  0.090571744393033,
        0.096930657997931,  0.10211296757806 ,  0.106055765922846,
        0.108711192258294,  0.110047013016475,  0.110047013016475,
        0.108711192258294,  0.106055765922846,  0.10211296757806 ,
        0.096930657997931,  0.090571744393034,  0.083113417228901,
        0.074646214234569,  0.065272923966999,  0.055107345675717,
        0.044272934759005,  0.032901427782303,  0.021132112592774,
        0.009124282593094};
#endif

#if QUAD_ORDER == 29
const double host_legendre_points[] = {
        -9.966794422605965e-01,  -9.825455052614123e-01,
        -9.572855957780869e-01,  -9.211802329530575e-01,
        -8.746378049201037e-01,  -8.181854876152524e-01,
        -7.524628517344770e-01,  -6.782145376026864e-01,
        -5.962817971382284e-01,  -5.075929551242284e-01,
        -4.131528881740089e-01,  -3.140316378676398e-01,
        -2.113522861660014e-01,  -1.062782301326791e-01,
        -1.960127144573267e-16,   1.062782301326790e-01,
         2.113522861660011e-01,   3.140316378676400e-01,
         4.131528881740087e-01,   5.075929551242278e-01,
         5.962817971382263e-01,   6.782145376026854e-01,
         7.524628517344771e-01,   8.181854876152524e-01,
         8.746378049201030e-01,   9.211802329530591e-01,
         9.572855957780873e-01,   9.825455052614149e-01,
         9.966794422605972e-01};
const double host_gauss_weights[] = {
        0.008516903878746,  0.019732085056122,  0.030740492202093,
        0.041402062518684,  0.051594826902497,  0.06120309065708 ,
        0.070117933255052,  0.078238327135765,  0.085472257366173,
        0.09173775713926 ,  0.096963834094407,  0.101091273759914,
        0.10407331007773 ,  0.10587615509732 ,  0.106479381718314,
        0.105876155097321,  0.104073310077729,  0.101091273759915,
        0.096963834094409,  0.09173775713926 ,  0.085472257366172,
        0.078238327135763,  0.070117933255051,  0.06120309065708 ,
        0.051594826902497,  0.041402062518683,  0.030740492202091,
        0.019732085056126,  0.008516903878746};
#endif

#if QUAD_ORDER == 30
const double host_legendre_points[] = {
       -0.99689348407465 , -0.983668123279747, -0.960021864968307,
       -0.926200047429276, -0.882560535792052, -0.829565762382769,
       -0.767777432104827, -0.697850494793316, -0.620526182989245,
       -0.536624148142021, -0.44703376953809 , -0.352704725530878,
       -0.25463692616789 , -0.153869913608584, -0.051471842555318,
        0.051471842555318,  0.153869913608583,  0.25463692616789 ,
        0.352704725530878,  0.447033769538089,  0.53662414814202 ,
        0.620526182989243,  0.697850494793316,  0.767777432104827,
        0.82956576238277 ,  0.882560535792053,  0.926200047429275,
        0.960021864968308,  0.983668123279748,  0.996893484074652};
const double host_gauss_weights[] = {
        0.007968192496166,  0.018466468311092,  0.028784707883324,
        0.03879919256963 ,  0.048402672830593,  0.057493156217618,
        0.065974229882181,  0.073755974737704,  0.080755895229421,
        0.086899787201086,  0.092122522237787,  0.096368737174644,
        0.099593420586796,  0.101762389748406,  0.102852652893559,
        0.102852652893559,  0.101762389748405,  0.099593420586796,
        0.096368737174644,  0.092122522237786,  0.086899787201083,
        0.080755895229421,  0.073755974737707,  0.06597422988218 ,
        0.057493156217619,  0.048402672830593,  0.038799192569627,
        0.028784707883324,  0.01846646831109 ,  0.00796819249617 };
#endif

#if QUAD_ORDER == 31
const double host_legendre_points[] = {
        -9.970874818194776e-01,  -9.846859096651531e-01,
        -9.625039250929498e-01,  -9.307569978966492e-01,
        -8.897600299482705e-01,  -8.399203201462672e-01,
        -7.817331484166263e-01,  -7.157767845868530e-01,
        -6.427067229242598e-01,  -5.632491614071500e-01,
        -4.781937820449028e-01,  -3.883859016082332e-01,
        -2.947180699817015e-01,  -1.981211993355705e-01,
        -9.955531215234145e-02,   7.597864489627033e-17,
         9.955531215234151e-02,   1.981211993355716e-01,
         2.947180699817023e-01,   3.883859016082332e-01,
         4.781937820449031e-01,   5.632491614071496e-01,
         6.427067229242605e-01,   7.157767845868539e-01,
         7.817331484166250e-01,   8.399203201462668e-01,
         8.897600299482724e-01,   9.307569978966475e-01,
         9.625039250929491e-01,   9.846859096651522e-01,
         9.970874818194773e-01};
const double host_gauss_weights[] = {
        0.007470831579248,  0.017318620790313,  0.027009019184979,
        0.036432273912386,  0.0454937075272  ,  0.054103082424916,
        0.06217478656103 ,  0.069628583235409,  0.076390386598776,
        0.08239299176159 ,  0.087576740608479,  0.091890113893641,
        0.095290242912319,  0.097743335386329,  0.099225011226672,
        0.099720544793426,  0.099225011226672,  0.097743335386328,
        0.09529024291232 ,  0.091890113893642,  0.087576740608479,
        0.08239299176159 ,  0.076390386598777,  0.06962858323541 ,
        0.062174786561029,  0.054103082424917,  0.045493707527201,
        0.036432273912385,  0.027009019184981,  0.017318620790311,
        0.007470831579247};
#endif

#if QUAD_ORDER == 32
const double host_legendre_points[] = {
       -0.997263861849481, -0.985611511545267, -0.964762255587506,
       -0.93490607593774 , -0.896321155766053, -0.84936761373257 ,
       -0.794483795967942, -0.732182118740291, -0.663044266930215,
       -0.587715757240764, -0.506899908932231, -0.421351276130636,
       -0.331868602282128, -0.239287362252137, -0.144471961582796,
       -0.048307665687738,  0.048307665687738,  0.144471961582796,
        0.239287362252137,  0.331868602282128,  0.421351276130635,
        0.506899908932229,  0.587715757240763,  0.663044266930215,
        0.732182118740289,  0.794483795967942,  0.84936761373257 ,
        0.896321155766052,  0.934906075937739,  0.964762255587506,
        0.985611511545269,  0.99726386184948 };
const double host_gauss_weights[] = {
        0.007018610009472,  0.016274394730906,  0.02539206530926 ,
        0.034273862913024,  0.042835898022227,  0.050998059262374,
        0.058684093478536,  0.065822222776362,  0.072345794108849,
        0.078193895787071,  0.083311924226946,  0.087652093004405,
        0.091173878695764,  0.093844399080804,  0.095638720079274,
        0.096540088514728,  0.096540088514728,  0.095638720079274,
        0.093844399080805,  0.091173878695764,  0.087652093004404,
        0.083311924226947,  0.078193895787071,  0.07234579410885 ,
        0.065822222776361,  0.058684093478534,  0.050998059262376,
        0.042835898022228,  0.034273862913019,  0.025392065309263,
        0.016274394730908,  0.007018610009469};
#endif

#if QUAD_ORDER == 33
const double host_legendre_points[] = {
        -9.974246942464543e-01,  -9.864557262306413e-01,
        -9.668229096899927e-01,  -9.386943726111672e-01,
        -9.023167677434318e-01,  -8.580096526765041e-01,
        -8.061623562741667e-01,  -7.472304964495625e-01,
        -6.817319599697426e-01,  -6.102423458363777e-01,
        -5.333899047863462e-01,  -4.518500172724504e-01,
        -3.663392577480727e-01,  -2.776090971524968e-01,
        -1.864392988279915e-01,  -9.363106585473370e-02,
        -4.456009877861709e-17,   9.363106585473345e-02,
         1.864392988279912e-01,   2.776090971524972e-01,
         3.663392577480722e-01,   4.518500172724506e-01,
         5.333899047863474e-01,   6.102423458363795e-01,
         6.817319599697433e-01,   7.472304964495624e-01,
         8.061623562741663e-01,   8.580096526765050e-01,
         9.023167677434332e-01,   9.386943726111685e-01,
         9.668229096899925e-01,   9.864557262306435e-01,
         9.974246942464544e-01};
const double host_gauss_weights[] = {
        0.006606227847583,  0.015321701512938,  0.023915548101751,
        0.032300358632328,  0.040401541331668,  0.048147742818715,
        0.055470846631661,  0.062306482530318,  0.068594572818657,
        0.074279854843956,  0.079312364794888,  0.08364787606704 ,
        0.087248287618844,  0.090081958660639,  0.092123986643319,
        0.093356426065597,  0.09376844616021 ,  0.093356426065596,
        0.092123986643317,  0.09008195866064 ,  0.087248287618845,
        0.083647876067038,  0.079312364794886,  0.074279854843954,
        0.068594572818657,  0.062306482530317,  0.055470846631664,
        0.048147742818712,  0.040401541331667,  0.03230035863233 ,
        0.023915548101749,  0.015321701512935,  0.006606227847589};
#endif

#if QUAD_ORDER == 34
const double host_legendre_points[] = {
       -0.997571753790841, -0.987227816406306, -0.968708262533344,
       -0.942162397405107, -0.907809677718324, -0.865934638334564,
       -0.816884227900935, -0.761064876629874, -0.698939113216262,
       -0.631021727080529, -0.557875500669748, -0.480106545190326,
       -0.398359277758646, -0.313311081339463, -0.225666691616449,
       -0.136152357259183, -0.045509821953103,  0.045509821953103,
        0.136152357259183,  0.22566669161645 ,  0.313311081339463,
        0.398359277758646,  0.480106545190327,  0.557875500669747,
        0.631021727080528,  0.698939113216264,  0.761064876629873,
        0.816884227900935,  0.865934638334564,  0.907809677718324,
        0.942162397405108,  0.968708262533343,  0.987227816406309,
        0.997571753790841};
const double host_gauss_weights[] = {
        0.006229140555909,  0.014450162748592,  0.022563721985494,
        0.030491380638447,  0.038166593796391,  0.045525611523353,
        0.052507414572678,  0.059054135827523,  0.065111521554077,
        0.070629375814255,  0.075561974660031,  0.079868444339773,
        0.083513099699845,  0.086465739747036,  0.088701897835694,
        0.090203044370641,  0.090956740330259,  0.090956740330259,
        0.090203044370641,  0.088701897835694,  0.086465739747035,
        0.083513099699846,  0.079868444339773,  0.075561974660031,
        0.070629375814254,  0.065111521554077,  0.059054135827525,
        0.052507414572679,  0.045525611523353,  0.038166593796388,
        0.030491380638446,  0.022563721985493,  0.014450162748599,
        0.006229140555908};
#endif

#if QUAD_ORDER == 35
const double host_legendre_points[] = {
        -9.977065690995995e-01,  -9.879357644438503e-01,
        -9.704376160392300e-01,  -9.453451482078282e-01,
        -9.128542613593190e-01,  -8.732191250252233e-01,
        -8.267498990922254e-01,  -7.738102522869116e-01,
        -7.148145015566280e-01,  -6.502243646658904e-01,
        -5.805453447497649e-01,  -5.063227732414889e-01,
        -4.281375415178142e-01,  -3.466015544308140e-01,
        -2.623529412092964e-01,  -1.760510611659900e-01,
        -8.837134327565956e-02,   6.611502187697036e-17,
         8.837134327565907e-02,   1.760510611659899e-01,
         2.623529412092965e-01,   3.466015544308142e-01,
         4.281375415178142e-01,   5.063227732414884e-01,
         5.805453447497653e-01,   6.502243646658902e-01,
         7.148145015566285e-01,   7.738102522869125e-01,
         8.267498990922260e-01,   8.732191250252215e-01,
         9.128542613593177e-01,   9.453451482078266e-01,
         9.704376160392313e-01,   9.879357644438509e-01,
         9.977065690996003e-01};
const double host_gauss_weights[] = {
        0.005883433420441,  0.01365082834836 ,  0.021322979911487,
        0.028829260108894,  0.036110115863466,  0.043108422326168,
        0.049769370401354,  0.056040816212368,  0.061873671966082,
        0.067222285269087,  0.072044794772561,  0.076303457155444,
        0.079964942242325,  0.083000593728856,  0.085386653392101,
        0.087104446997184,  0.088140530430275,  0.088486794907104,
        0.088140530430276,  0.087104446997184,  0.085386653392098,
        0.083000593728857,  0.079964942242324,  0.076303457155442,
        0.072044794772561,  0.067222285269087,  0.06187367196608 ,
        0.056040816212371,  0.049769370401353,  0.043108422326171,
        0.036110115863465,  0.028829260108895,  0.021322979911485,
        0.013650828348361,  0.005883433420441};
#endif

#if QUAD_ORDER == 36
const double host_legendre_points[] = {
       -0.997830462484087, -0.988586478902213, -0.972027691049697,
       -0.948272984399508, -0.917497774515658, -0.879929800890396,
       -0.835847166992476, -0.785576230132208, -0.729489171593558,
       -0.668001236585524, -0.601567658135982, -0.530680285926246,
       -0.455863944433421, -0.377672547119689, -0.296684995344028,
       -0.213500892316865, -0.128736103809385, -0.043018198473708,
        0.043018198473709,  0.128736103809385,  0.213500892316866,
        0.296684995344029,  0.377672547119689,  0.45586394443342 ,
        0.530680285926245,  0.601567658135982,  0.66800123658552 ,
        0.729489171593556,  0.785576230132206,  0.835847166992474,
        0.879929800890396,  0.917497774515658,  0.948272984399508,
        0.972027691049698,  0.98858647890221 ,  0.997830462484086};
const double host_gauss_weights[] = {
        0.005565719664245,  0.012915947284065,  0.020181515297733,
        0.027298621498572,  0.034213810770307,  0.040875750923645,
        0.047235083490265,  0.053244713977763,  0.058860144245326,
        0.064039797355015,  0.068745323835739,  0.072941885005652,
        0.076598410645871,  0.079687828912072,  0.08218726670434 ,
        0.084078218979661,  0.085346685739338,  0.085983275670394,
        0.085983275670395,  0.085346685739338,  0.084078218979661,
        0.082187266704341,  0.079687828912072,  0.076598410645871,
        0.072941885005652,  0.068745323835738,  0.064039797355015,
        0.058860144245325,  0.053244713977759,  0.047235083490266,
        0.040875750923644,  0.034213810770306,  0.027298621498571,
        0.020181515297734,  0.012915947284065,  0.005565719664245};
#endif

#if QUAD_ORDER == 37
const double host_legendre_points[] = {
        -9.979445824779116e-01,  -9.891859632143197e-01,
        -9.734930300564857e-01,  -9.509723432620939e-01,
        -9.217814374124628e-01,  -8.861249621554868e-01,
        -8.442529873405558e-01,  -7.964592005099032e-01,
        -7.430788339819663e-01,  -6.844863091309603e-01,
        -6.210926084089242e-01,  -5.533423918615826e-01,
        -4.817108778032055e-01,  -4.067005093183260e-01,
        -3.288374298837071e-01,  -2.486677927913659e-01,
        -1.667539302398526e-01,  -8.367040895477065e-02,
        -1.254016891529282e-16,   8.367040895476970e-02,
         1.667539302398520e-01,   2.486677927913658e-01,
         3.288374298837073e-01,   4.067005093183263e-01,
         4.817108778032057e-01,   5.533423918615811e-01,
         6.210926084089244e-01,   6.844863091309594e-01,
         7.430788339819651e-01,   7.964592005099019e-01,
         8.442529873405555e-01,   8.861249621554882e-01,
         9.217814374124643e-01,   9.509723432620950e-01,
         9.734930300564852e-01,   9.891859632143212e-01,
         9.979445824779157e-01};
const double host_gauss_weights[] = {
        0.005273057279501,  0.012238780100308,  0.019129044489081,
        0.025886036990558,  0.032461639847521,  0.038809602501932,
        0.04488536466244 ,  0.050646297654827,  0.056051987998274,
        0.061064516523226,  0.065648722872751,  0.069772451555703,
        0.073406777248487,  0.076526207570529,  0.079108861837529,
        0.081136624508465,  0.082595272236438,  0.083474573625863,
        0.083768360993139,  0.083474573625862,  0.082595272236437,
        0.081136624508465,  0.079108861837529,  0.076526207570528,
        0.073406777248488,  0.0697724515557  ,  0.065648722872751,
        0.061064516523226,  0.056051987998277,  0.050646297654825,
        0.044885364662437,  0.038809602501935,  0.032461639847523,
        0.025886036990559,  0.019129044489084,  0.012238780100305,
        0.0052730572795  };
#endif

#if QUAD_ORDER == 38
const double host_legendre_points[] = {
       -0.998049930535687, -0.989739454266384, -0.974846328590151,
       -0.953466330933528, -0.925741332048585, -0.891855739004632,
       -0.85203502193236 , -0.806544167605316, -0.755685903753969,
       -0.699798680379184, -0.639254415829681, -0.574456021047807,
       -0.50583471792793 , -0.433847169432375, -0.358972440479435,
       -0.281708809790165, -0.202570453892116, -0.122084025337867,
       -0.040785147904578,  0.040785147904578,  0.122084025337867,
        0.202570453892117,  0.281708809790165,  0.358972440479435,
        0.433847169432377,  0.505834717927931,  0.574456021047806,
        0.639254415829683,  0.699798680379183,  0.755685903753971,
        0.806544167605316,  0.852035021932362,  0.891855739004632,
        0.925741332048584,  0.95346633093353 ,  0.974846328590154,
        0.989739454266385,  0.998049930535688};
const double host_gauss_weights[] = {
        0.005002880749645,  0.011613444716464,  0.01815657770961 ,
        0.024579739738233,  0.030839500545178,  0.036894081594027,
        0.042703158504674,  0.048228061860757,  0.053432019910335,
        0.058280399147   ,  0.062740933392132,  0.066783937979141,
        0.070382507066898,  0.073512692584744,  0.076153663548447,
        0.078287844658211,  0.079901033243528,  0.080982493770596,
        0.081525029280386,  0.081525029280386,  0.080982493770597,
        0.079901033243528,  0.078287844658211,  0.076153663548447,
        0.073512692584744,  0.0703825070669  ,  0.066783937979139,
        0.062740933392134,  0.058280399146997,  0.053432019910331,
        0.048228061860759,  0.042703158504674,  0.036894081594024,
        0.030839500545173,  0.02457973973823 ,  0.018156577709615,
        0.01161344471647 ,  0.005002880749638};
#endif

#if QUAD_ORDER == 39
const double host_legendre_points[] = {
        -9.981473830664330e-01,  -9.902515368546868e-01,
        -9.760987093334712e-01,  -9.557752123246530e-01,
        -9.294091484867383e-01,  -8.971671192929929e-01,
        -8.592529379999050e-01,  -8.159062974301429e-01,
        -7.674012429310628e-01,  -7.140444358945335e-01,
        -6.561732134320098e-01,  -5.941534549572783e-01,
        -5.283772686604373e-01,  -4.592605123091357e-01,
        -3.872401639715625e-01,  -3.127715592481871e-01,
        -2.363255124618359e-01,  -1.583853399978385e-01,
        -7.944380460875577e-02,   2.244718457334583e-17,
         7.944380460875562e-02,   1.583853399978376e-01,
         2.363255124618361e-01,   3.127715592481858e-01,
         3.872401639715625e-01,   4.592605123091364e-01,
         5.283772686604378e-01,   5.941534549572780e-01,
         6.561732134320111e-01,   7.140444358945355e-01,
         7.674012429310640e-01,   8.159062974301430e-01,
         8.592529379999064e-01,   8.971671192929921e-01,
         9.294091484867394e-01,   9.557752123246546e-01,
         9.760987093334724e-01,   9.902515368546858e-01,
         9.981473830664349e-01};
const double host_gauss_weights[] = {
        0.004752944691635,  0.011034788939168,  0.017256229093724,
        0.023369384832178,  0.029334955983903,  0.035115111498128,
        0.040673276847938,  0.045974301108916,  0.050984665292128,
        0.055672690340914,  0.060008736088598,  0.063965388138684,
        0.067517630966229,  0.070643005970609,  0.073321753414269,
        0.075536937322836,  0.077274552544682,  0.078523613287371,
        0.079276222568368,  0.079527622139442,  0.079276222568369,
        0.078523613287371,  0.077274552544682,  0.075536937322836,
        0.073321753414268,  0.070643005970609,  0.067517630966232,
        0.063965388138683,  0.060008736088596,  0.055672690340918,
        0.050984665292129,  0.045974301108918,  0.040673276847933,
        0.035115111498131,  0.029334955983904,  0.02336938483218 ,
        0.017256229093724,  0.011034788939164,  0.004752944691636};
#endif

#if QUAD_ORDER == 40
const double host_legendre_points[] = {
       -0.998237709710557, -0.990726238699456, -0.977259949983773,
       -0.957916819213791, -0.932812808278677, -0.902098806968874,
       -0.865959503212258, -0.824612230833312, -0.778305651426518,
       -0.727318255189927, -0.671956684614181, -0.61255388966798 ,
       -0.549467125095129, -0.48307580168618 , -0.413779204371605,
       -0.341994090825759, -0.268152185007254, -0.192697580701371,
       -0.116084070675256, -0.038772417506051,  0.038772417506051,
        0.116084070675256,  0.192697580701371,  0.268152185007253,
        0.341994090825759,  0.413779204371605,  0.483075801686179,
        0.549467125095128,  0.61255388966798 ,  0.671956684614179,
        0.727318255189926,  0.778305651426519,  0.824612230833313,
        0.86595950321226 ,  0.902098806968874,  0.932812808278678,
        0.957916819213792,  0.977259949983774,  0.990726238699457,
        0.99823770971056 };
const double host_gauss_weights[] = {
        0.004521277098534,  0.010498284531152,  0.016421058381909,
        0.022245849194166,  0.027937006980023,  0.033460195282547,
        0.038782167974471,  0.043870908185676,  0.048695807635071,
        0.053227846983936,  0.057439769099393,  0.061306242492929,
        0.064804013456603,  0.067912045815234,  0.070611647391284,
        0.072886582395804,  0.074723169057969,  0.076110361900627,
        0.077039818164248,  0.077505947978425,  0.077505947978425,
        0.077039818164248,  0.076110361900626,  0.074723169057969,
        0.072886582395804,  0.070611647391286,  0.067912045815234,
        0.064804013456602,  0.061306242492929,  0.057439769099392,
        0.053227846983935,  0.048695807635073,  0.043870908185674,
        0.038782167974471,  0.033460195282547,  0.027937006980025,
        0.022245849194169,  0.016421058381906,  0.010498284531152,
        0.004521277098534};
#endif

#if QUAD_ORDER == 41
const double host_legendre_points[] = {
        -9.983215885747720e-01,  -9.911671096990149e-01,
        -9.783386735610826e-01,  -9.599068917303459e-01,
        -9.359769874978535e-01,  -9.066859447580999e-01,
        -8.722015116924412e-01,  -8.327212004013618e-01,
        -7.884711450474112e-01,  -7.397048030699268e-01,
        -6.867015020349526e-01,  -6.297648390721978e-01,
        -5.692209416102155e-01,  -5.054165991994062e-01,
        -4.387172770514074e-01,  -3.695050226404819e-01,
        -2.981762773418250e-01,  -2.251396056334232e-01,
        -1.508133548639926e-01,  -7.562325898916308e-02,
        -2.397774970400261e-16,   7.562325898916304e-02,
         1.508133548639922e-01,   2.251396056334226e-01,
         2.981762773418247e-01,   3.695050226404815e-01,
         4.387172770514063e-01,   5.054165991994055e-01,
         5.692209416102153e-01,   6.297648390721956e-01,
         6.867015020349517e-01,   7.397048030699266e-01,
         7.884711450474091e-01,   8.327212004013625e-01,
         8.722015116924410e-01,   9.066859447581017e-01,
         9.359769874978533e-01,   9.599068917303474e-01,
         9.783386735610824e-01,   9.911671096990162e-01,
         9.983215885747725e-01};
const double host_gauss_weights[] = {
        0.004306140358161,  0.009999938773905,  0.01564493840782 ,
        0.02120106336878 ,  0.02663589920711 ,  0.031918211731701,
        0.037017716703509,  0.04190519519591 ,  0.046552648369019,
        0.050933454294618,  0.055022519242579,  0.058796420949873,
        0.062233542580964,  0.065314196453529,  0.068020736760876,
        0.070337660620817,  0.072251696861024,  0.073751882027224,
        0.074829623176221,  0.075478747092716,  0.075695535647299,
        0.075478747092716,  0.074829623176221,  0.073751882027223,
        0.072251696861023,  0.070337660620818,  0.068020736760876,
        0.065314196453527,  0.062233542580966,  0.058796420949872,
        0.055022519242578,  0.050933454294619,  0.046552648369015,
        0.041905195195912,  0.037017716703509,  0.031918211731698,
        0.026635899207107,  0.021201063368781,  0.015644938407818,
        0.009999938773903,  0.004306140358167};
#endif

#if QUAD_ORDER == 42
const double host_legendre_points[] = {
       -0.998399618990063, -0.991577288340861, -0.979342508063749,
       -0.961759365338205, -0.938923557354988, -0.910959724904127,
       -0.878020569812173, -0.840285983261817, -0.797962053255488,
       -0.751279935689481, -0.700494590556171, -0.645883388869247,
       -0.587744597485109, -0.526395749931193, -0.462171912070422,
       -0.395423852042975, -0.326516124465411, -0.25582507934288 ,
       -0.183736806564854, -0.11064502720852 , -0.036948943165352,
        0.036948943165352,  0.11064502720852 ,  0.183736806564855,
        0.255825079342879,  0.326516124465412,  0.395423852042975,
        0.462171912070423,  0.526395749931193,  0.587744597485109,
        0.645883388869247,  0.700494590556172,  0.75127993568948 ,
        0.797962053255487,  0.840285983261815,  0.878020569812174,
        0.910959724904127,  0.938923557354989,  0.961759365338203,
        0.979342508063747,  0.991577288340862,  0.998399618990061};
const double host_gauss_weights[] = {
        0.004105998604652,  0.009536220301748,  0.014922443697356,
        0.020227869569051,  0.025422959526112,  0.030479240699603,
        0.035369071097593,  0.040065735180694,  0.044543577771967,
        0.048778140792806,  0.052746295699173,  0.056426369358015,
        0.059798262227588,  0.062843558045002,  0.065545624364907,
        0.067889703376523,  0.069862992492593,  0.071454714265172,
        0.072656175243803,  0.073460813453468,  0.073864234232173,
        0.073864234232173,  0.073460813453468,  0.072656175243804,
        0.071454714265171,  0.069862992492594,  0.067889703376522,
        0.065545624364909,  0.062843558045003,  0.059798262227587,
        0.056426369358018,  0.052746295699174,  0.048778140792805,
        0.044543577771966,  0.04006573518069 ,  0.035369071097592,
        0.030479240699603,  0.025422959526114,  0.020227869569052,
        0.014922443697355,  0.009536220301751,  0.004105998604649};
#endif

#if QUAD_ORDER == 43
const double host_legendre_points[] = {
        -9.984723322425075e-01,  -9.919595575932449e-01,
        -9.802782209802560e-01,  -9.634866130140806e-01,
        -9.416719568476380e-01,  -9.149479072061404e-01,
        -8.834537652186177e-01,  -8.473537162093142e-01,
        -8.068359641369416e-01,  -7.621117471949577e-01,
        -7.134142352689578e-01,  -6.609973137514996e-01,
        -6.051342596396009e-01,  -5.461163166600853e-01,
        -4.842511767857343e-01,  -4.198613760292698e-01,
        -3.532826128643046e-01,  -2.848619980329144e-01,
        -2.149562448605185e-01,  -1.439298095107137e-01,
        -7.215299087458688e-02,   2.038815515623230e-17,
         7.215299087458601e-02,   1.439298095107133e-01,
         2.149562448605183e-01,   2.848619980329135e-01,
         3.532826128643042e-01,   4.198613760292697e-01,
         4.842511767857344e-01,   5.461163166600855e-01,
         6.051342596396005e-01,   6.609973137514978e-01,
         7.134142352689569e-01,   7.621117471949553e-01,
         8.068359641369385e-01,   8.473537162093153e-01,
         8.834537652186162e-01,   9.149479072061389e-01,
         9.416719568476378e-01,   9.634866130140809e-01,
         9.802782209802537e-01,   9.919595575932451e-01,
         9.984723322425111e-01};
const double host_gauss_weights[] = {
        0.003919490253842,  0.009103996637402,  0.014248756431577,
        0.019319901423683,  0.024290456613839,  0.0291344132615  ,
        0.033826492086859,  0.038342222194134,  0.042658057197982,
        0.046751494754349,  0.050601192784389,  0.054187080318885,
        0.057490461956908,  0.06049411524999 ,  0.063182380449396,
        0.065541242126324,  0.067558402229365,  0.069223344193654,
        0.070527387765085,  0.071463734252514,  0.072027501971422,
        0.072215751693799,  0.072027501971422,  0.071463734252513,
        0.070527387765086,  0.069223344193657,  0.067558402229365,
        0.065541242126324,  0.063182380449395,  0.060494115249992,
        0.05749046195691 ,  0.054187080318882,  0.05060119278439 ,
        0.046751494754346,  0.042658057197981,  0.038342222194135,
        0.033826492086858,  0.029134413261498,  0.02429045661384 ,
        0.019319901423684,  0.014248756431574,  0.009103996637401,
        0.003919490253847};
#endif

#if QUAD_ORDER == 44
const double host_legendre_points[] = {
       -0.998540200636775, -0.992316392138516, -0.981151833077913,
       -0.965099650422492, -0.944239509118194, -0.918675259984175,
       -0.888534238286042, -0.85396659500471 , -0.815144539645135,
       -0.772261479248755, -0.725531053660717, -0.675186070666121,
       -0.621477345903574, -0.56467245318547 , -0.505054391388202,
       -0.442920174525412, -0.378579352014707, -0.312352466502785,
       -0.244569456928202, -0.175568014775517, -0.105691901708654,
       -0.035289236964136,  0.035289236964135,  0.105691901708653,
        0.175568014775517,  0.244569456928202,  0.312352466502786,
        0.378579352014706,  0.442920174525411,  0.505054391388202,
        0.564672453185471,  0.621477345903576,  0.675186070666122,
        0.725531053660717,  0.772261479248756,  0.815144539645135,
        0.853966595004711,  0.888534238286044,  0.918675259984174,
        0.944239509118196,  0.965099650422494,  0.981151833077914,
        0.992316392138516,  0.998540200636774};
const double host_gauss_weights[] = {
        0.003745404803119,  0.008700481367522,  0.013619586755574,
        0.018471481736817,  0.023231481902019,  0.02787578282128 ,
        0.032381222812071,  0.036725347813809,  0.040886512310348,
        0.044843984081968,  0.048578046448352,  0.052070096091704,
        0.055302735563726,  0.058259859877595,  0.060926736701562,
        0.063290079733205,  0.065338114879181,  0.067060638906294,
        0.068449070269367,  0.069496491861572,  0.070197685473559,
        0.070549157789354,  0.070549157789354,  0.070197685473558,
        0.069496491861573,  0.068449070269366,  0.067060638906294,
        0.065338114879182,  0.063290079733204,  0.060926736701563,
        0.058259859877595,  0.055302735563728,  0.052070096091704,
        0.048578046448354,  0.044843984081969,  0.040886512310345,
        0.036725347813809,  0.032381222812073,  0.027875782821275,
        0.023231481902022,  0.018471481736814,  0.013619586755578,
        0.008700481367526,  0.003745404803113};
#endif

#if QUAD_ORDER == 45
const double host_legendre_points[] = {
        -9.986036451819376e-01,  -9.926499984472041e-01,
        -9.819687150345411e-01,  -9.666083103968950e-01,
        -9.466416909956283e-01,  -9.221639367190004e-01,
        -8.932916717532418e-01,  -8.601624759606634e-01,
        -8.229342205020849e-01,  -7.817843125939057e-01,
        -7.369088489454904e-01,  -6.885216807711999e-01,
        -6.368533944532229e-01,  -5.821502125693527e-01,
        -5.246728204629164e-01,  -4.646951239196344e-01,
        -4.025029438585410e-01,  -3.383926542506018e-01,
        -2.726697697523782e-01,  -2.056474897832638e-01,
        -1.376452059832532e-01,  -6.898698016314415e-02,
        -4.344390966002103e-17,   6.898698016314425e-02,
         1.376452059832535e-01,   2.056474897832633e-01,
         2.726697697523776e-01,   3.383926542506020e-01,
         4.025029438585416e-01,   4.646951239196354e-01,
         5.246728204629157e-01,   5.821502125693537e-01,
         6.368533944532234e-01,   6.885216807712013e-01,
         7.369088489454899e-01,   7.817843125939058e-01,
         8.229342205020853e-01,   8.601624759606656e-01,
         8.932916717532399e-01,   9.221639367190013e-01,
         9.466416909956284e-01,   9.666083103968947e-01,
         9.819687150345416e-01,   9.926499984472031e-01,
         9.986036451819368e-01};
const double host_gauss_weights[] = {
        0.003582663155283,  0.008323189296218,  0.013031104991584,
        0.017677535257939,  0.022239847550579,  0.026696213967578,
        0.031025374934513,  0.035206692201608,  0.039220236729303,
        0.043046880709165,  0.046668387718373,  0.050067499237951,
        0.053228016731269,  0.056134878759787,  0.058774232718843,
        0.061133500831066,  0.063201440073819,  0.064968195750723,
        0.066425348449842,  0.067565954163608,  0.068384577378669,
        0.068877316977661,  0.069041824829232,  0.068877316977661,
        0.068384577378669,  0.067565954163608,  0.066425348449843,
        0.064968195750723,  0.063201440073821,  0.061133500831067,
        0.058774232718842,  0.056134878759787,  0.053228016731269,
        0.050067499237952,  0.046668387718374,  0.043046880709166,
        0.039220236729301,  0.035206692201609,  0.031025374934513,
        0.026696213967582,  0.022239847550579,  0.017677535257935,
        0.013031104991581,  0.00832318929622 ,  0.003582663155283};
#endif

#if QUAD_ORDER == 46
const double host_legendre_points[] = {
       -0.998663042133819, -0.992962348906173, -0.982733669804166,
       -0.968021391853989, -0.948892363446089, -0.925433798806753,
       -0.897752711533941, -0.865975394866858, -0.830246837066065,
       -0.790730057075273, -0.747605359615665, -0.701069512020403,
       -0.651334846201996, -0.598628289712714, -0.543190330261802,
       -0.485273918388163, -0.425143313282828, -0.363072877020996,
       -0.29934582270187 , -0.23425292220627 , -0.168091179467104,
       -0.101162475305584, -0.033772190016052,  0.033772190016052,
        0.101162475305585,  0.168091179467103,  0.23425292220627 ,
        0.29934582270187 ,  0.363072877020997,  0.425143313282828,
        0.485273918388165,  0.543190330261803,  0.598628289712716,
        0.651334846201997,  0.701069512020405,  0.747605359615665,
        0.790730057075275,  0.830246837066066,  0.865975394866858,
        0.897752711533943,  0.925433798806754,  0.94889236344609 ,
        0.968021391853991,  0.982733669804165,  0.992962348906171,
        0.998663042133817};
const double host_gauss_weights[] = {
        0.003430300868109,  0.007969898229721,  0.012479883770991,
        0.016933514007833,  0.021309998754139,  0.025589286397135,
        0.029751829552203,  0.03377862799911 ,  0.037651305357384,
        0.041352190109677,  0.044864395277314,  0.048171895101711,
        0.051259598007144,  0.054113415385859,  0.05672032584399 ,
        0.059068434595547,  0.061147027724651,  0.062946621064394,
        0.064459003467139,  0.065677274267781,  0.066595874768455,
        0.067210613600678,  0.067518685849037,  0.067518685849037,
        0.067210613600678,  0.066595874768455,  0.065677274267781,
        0.064459003467139,  0.062946621064394,  0.061147027724651,
        0.059068434595545,  0.056720325843991,  0.054113415385857,
        0.051259598007144,  0.048171895101712,  0.044864395277319,
        0.04135219010968 ,  0.037651305357385,  0.033778627999107,
        0.029751829552203,  0.025589286397131,  0.021309998754138,
        0.016933514007836,  0.012479883770989,  0.007969898229723,
        0.003430300868106};
#endif

#if QUAD_ORDER == 47
const double host_legendre_points[] = {
        -9.987187285842121e-01,  -9.932552109877677e-01,
        -9.834510030716229e-01,  -9.693467873265639e-01,
        -9.510039692577081e-01,  -9.285026930123588e-01,
        -9.019413294385267e-01,  -8.714360157968964e-01,
        -8.371201398999025e-01,  -7.991437541677416e-01,
        -7.576729184454373e-01,  -7.128889734090634e-01,
        -6.649877473903332e-01,  -6.141786999563729e-01,
        -5.606840059346643e-01,  -5.047375838635778e-01,
        -4.465840731048553e-01,  -3.864777640846669e-01,
        -3.246814863377359e-01,  -2.614654592149742e-01,
        -1.971061102791120e-01,  -1.318848665545147e-01,
        -6.608692391635583e-02,   1.460286971316266e-16,
         6.608692391635607e-02,   1.318848665545150e-01,
         1.971061102791117e-01,   2.614654592149744e-01,
         3.246814863377352e-01,   3.864777640846671e-01,
         4.465840731048554e-01,   5.047375838635783e-01,
         5.606840059346641e-01,   6.141786999563736e-01,
         6.649877473903325e-01,   7.128889734090639e-01,
         7.576729184454384e-01,   7.991437541677419e-01,
         8.371201398999024e-01,   8.714360157968959e-01,
         9.019413294385256e-01,   9.285026930123602e-01,
         9.510039692577085e-01,   9.693467873265643e-01,
         9.834510030716236e-01,   9.932552109877683e-01,
         9.987187285842120e-01};
const double host_gauss_weights[] = {
        0.003287453842532,  0.007638616295849,  0.011962848464309,
        0.016235333146431,  0.020436938147666,  0.024549211659661,
        0.028554150700645,  0.032434235515188,  0.036172496584172,
        0.039752586122533,  0.043158848648478,  0.046376389086507,
        0.049391137747361,  0.052189911780056,  0.054760472781533,
        0.057091580293232,  0.059173040942339,  0.06099575300874 ,
        0.062551746220921,  0.063834216605718,  0.064837556238948,
        0.065557377766549,  0.065990533588811,  0.066135129623656,
        0.06599053358881 ,  0.06555737776655 ,  0.064837556238946,
        0.063834216605717,  0.062551746220923,  0.06099575300874 ,
        0.059173040942338,  0.057091580293232,  0.054760472781529,
        0.052189911780057,  0.049391137747362,  0.046376389086507,
        0.04315884864848 ,  0.03975258612253 ,  0.036172496584175,
        0.032434235515184,  0.028554150700647,  0.024549211659658,
        0.020436938147668,  0.016235333146433,  0.011962848464311,
        0.007638616295848,  0.003287453842531};
#endif

#if QUAD_ORDER == 48
const double host_legendre_points[] = {
       -0.998771007252424, -0.99353017226635 , -0.984124583722828,
       -0.970591592546246, -0.95298770316043 , -0.931386690706555,
       -0.905879136715569, -0.876572020274248, -0.843588261624393,
       -0.807066204029441, -0.76715903251574 , -0.724034130923816,
       -0.677872379632664, -0.628867396776513, -0.577224726083973,
       -0.523160974722232, -0.466902904750958, -0.408686481990717,
       -0.348755886292161, -0.287362487355456, -0.22476379039469 ,
       -0.161222356068892, -0.097004699209463, -0.032380170962869,
        0.03238017096287 ,  0.097004699209463,  0.161222356068891,
        0.224763790394689,  0.287362487355456,  0.34875588629216 ,
        0.408686481990716,  0.466902904750958,  0.523160974722233,
        0.577224726083973,  0.628867396776512,  0.677872379632664,
        0.724034130923816,  0.767159032515741,  0.807066204029443,
        0.843588261624394,  0.876572020274247,  0.905879136715568,
        0.931386690706553,  0.95298770316043 ,  0.970591592546247,
        0.984124583722828,  0.993530172266351,  0.998771007252425};
const double host_gauss_weights[] = {
        0.003153346052303,  0.007327553901278,  0.011477234579237,
        0.015579315722942,  0.019616160457355,  0.023570760839324,
        0.027426509708357,  0.031167227832799,  0.034777222564771,
        0.038241351065829,  0.041545082943464,  0.044674560856695,
        0.047616658492491,  0.050359035553852,  0.052890189485195,
        0.055199503699984,  0.057277292100402,  0.059114839698397,
        0.060704439165892,  0.062039423159893,  0.063114192286255,
        0.063924238584648,  0.06446616443595 ,  0.064737696812684,
        0.064737696812684,  0.06446616443595 ,  0.06392423858465 ,
        0.063114192286254,  0.062039423159893,  0.060704439165894,
        0.059114839698397,  0.057277292100403,  0.055199503699984,
        0.052890189485194,  0.050359035553853,  0.04761665849249 ,
        0.044674560856694,  0.041545082943466,  0.03824135106583 ,
        0.03477722256477 ,  0.031167227832798,  0.027426509708356,
        0.023570760839324,  0.019616160457353,  0.015579315722946,
        0.011477234579236,  0.007327553901278,  0.003153346052304};
#endif

#if QUAD_ORDER == 49
const double host_legendre_points[] = {
        -9.988201506066358e-01,  -9.937886619441687e-01,
        -9.847578959142127e-01,  -9.717622009015533e-01,
        -9.548536586741362e-01,  -9.341002947558114e-01,
        -9.095856558280752e-01,  -8.814084455730100e-01,
        -8.496821198441653e-01,  -8.145344273598558e-01,
        -7.761068943454477e-01,  -7.345542542374026e-01,
        -6.900438244251337e-01,  -6.427548324192379e-01,
        -5.928776941089019e-01,  -5.406132469917279e-01,
        -4.861719414524926e-01,  -4.297729933415758e-01,
        -3.716435012622855e-01,  -3.120175321197496e-01,
        -2.511351786125778e-01,  -1.892415924618136e-01,
        -1.265859972696719e-01,  -6.342068498268676e-02,
        -9.670061238639342e-17,   6.342068498268642e-02,
         1.265859972696716e-01,   1.892415924618135e-01,
         2.511351786125776e-01,   3.120175321197493e-01,
         3.716435012622858e-01,   4.297729933415768e-01,
         4.861719414524918e-01,   5.406132469917259e-01,
         5.928776941089000e-01,   6.427548324192384e-01,
         6.900438244251317e-01,   7.345542542374046e-01,
         7.761068943454458e-01,   8.145344273598554e-01,
         8.496821198441646e-01,   8.814084455730079e-01,
         9.095856558280730e-01,   9.341002947558106e-01,
         9.548536586741390e-01,   9.717622009015568e-01,
         9.847578959142151e-01,   9.937886619441683e-01,
         9.988201506066395e-01};
const double host_gauss_weights[] = {
        0.003027278988922,  0.007035099590091,  0.01102055103159 ,
        0.014962144935622,  0.01884359585309 ,  0.022649201587448,
        0.026363618927067,  0.029971884620582,  0.033459466791623,
        0.036812320963002,  0.040016945766372,  0.043060436981259,
        0.045930539355599,  0.048615695887828,  0.051105094330145,
        0.053388710708259,  0.055457349674802,  0.057302681530186,
        0.058917275760028,  0.060294630953153,  0.061429200979194,
        0.062316417320056,  0.062952707465196,  0.063335509296492,
        0.06346328140479 ,  0.063335509296492,  0.062952707465195,
        0.062316417320057,  0.061429200979192,  0.060294630953153,
        0.058917275760027,  0.057302681530187,  0.055457349674804,
        0.053388710708259,  0.051105094330144,  0.048615695887827,
        0.045930539355596,  0.043060436981262,  0.040016945766372,
        0.036812320963   ,  0.033459466791623,  0.029971884620582,
        0.026363618927069,  0.022649201587443,  0.018843595853091,
        0.014962144935624,  0.011020551031593,  0.007035099590087,
        0.003027278988926};
#endif

#if QUAD_ORDER == 50
const double host_legendre_points[] = {
       -0.998866404420069, -0.99403196943209 , -0.985354084048005,
       -0.972864385106692, -0.956610955242809, -0.936656618944878,
       -0.913078556655792, -0.885967979523613, -0.855429769429946,
       -0.821582070859336, -0.7845558329004  , -0.744494302226069,
       -0.701552468706822, -0.65589646568544 , -0.60770292718495 ,
       -0.55715830451465 , -0.504458144907463, -0.449806334974037,
       -0.393414311897565, -0.335500245419437, -0.276288193779532,
       -0.216007236876042, -0.154890589998146, -0.093174701560086,
       -0.031098338327189,  0.031098338327189,  0.093174701560086,
        0.154890589998146,  0.216007236876042,  0.276288193779531,
        0.335500245419438,  0.393414311897564,  0.449806334974039,
        0.504458144907464,  0.557158304514649,  0.60770292718495 ,
        0.655896465685439,  0.701552468706822,  0.744494302226068,
        0.784555832900399,  0.821582070859336,  0.855429769429945,
        0.885967979523612,  0.913078556655791,  0.936656618944878,
        0.956610955242808,  0.972864385106692,  0.985354084048006,
        0.994031969432091,  0.998866404420073};
const double host_gauss_weights[] = {
        0.002908622553151,  0.006759799195748,  0.010590548383653,
        0.014380822761487,  0.01811556071349 ,  0.021780243170125,
        0.025360673570009,  0.028842993580535,  0.032213728223579,
        0.035459835615147,  0.038568756612589,  0.041528463090149,
        0.044327504338801,  0.046955051303949,  0.049400938449466,
        0.051655703069579,  0.053710621888997,  0.055557744806211,
        0.057189925647728,  0.058600849813223,  0.059785058704265,
        0.060737970841771,  0.061455899590318,  0.061936067420683,
        0.062176616655348,  0.062176616655347,  0.061936067420683,
        0.061455899590316,  0.060737970841771,  0.059785058704265,
        0.058600849813222,  0.057189925647729,  0.055557744806212,
        0.053710621888997,  0.05165570306958 ,  0.049400938449467,
        0.046955051303949,  0.044327504338804,  0.041528463090148,
        0.038568756612587,  0.035459835615148,  0.032213728223577,
        0.028842993580535,  0.025360673570012,  0.021780243170124,
        0.018115560713489,  0.014380822761484,  0.01059054838365 ,
        0.006759799195744,  0.002908622553158};
#endif

#if QUAD_ORDER == 51
const double host_legendre_points[] = {
        -9.989099908489034e-01,  -9.942612604367532e-01,
        -9.859159917359039e-01,  -9.739033680193252e-01,
        -9.582678486139082e-01,  -9.390675440029623e-01,
        -9.163738623097794e-01,  -8.902712180295269e-01,
        -8.608567111822919e-01,  -8.282397638230657e-01,
        -7.925417120993816e-01,  -7.538953544853758e-01,
        -7.124444575770373e-01,  -6.683432211753704e-01,
        -6.217557046007226e-01,  -5.728552163513032e-01,
        -5.218236693661864e-01,  -4.688509042860408e-01,
        -4.141339832263046e-01,  -3.578764566884096e-01,
        -3.002876063353314e-01,  -2.415816664477987e-01,
        -1.819770269570773e-01,  -1.216954210188883e-01,
        -6.096110015057851e-02,   3.221333823285147e-16,
         6.096110015057874e-02,   1.216954210188889e-01,
         1.819770269570775e-01,   2.415816664477981e-01,
         3.002876063353313e-01,   3.578764566884103e-01,
         4.141339832263045e-01,   4.688509042860418e-01,
         5.218236693661865e-01,   5.728552163513045e-01,
         6.217557046007243e-01,   6.683432211753705e-01,
         7.124444575770387e-01,   7.538953544853765e-01,
         7.925417120993817e-01,   8.282397638230651e-01,
         8.608567111822933e-01,   8.902712180295270e-01,
         9.163738623097796e-01,   9.390675440029609e-01,
         9.582678486139072e-01,   9.739033680193223e-01,
         9.859159917359035e-01,   9.942612604367526e-01,
         9.989099908489044e-01};
const double host_gauss_weights[] = {
        0.002796807171088,  0.006500337783252,  0.010185191297825,
        0.013832634006482,  0.017428714723402,  0.0209599884017  ,
        0.02441330057378 ,  0.027775798594161,  0.031034971290161,
        0.034178693204189,  0.03719526892326 ,  0.040073476285497,
        0.04280260799788 ,  0.045372511407651,  0.047773626240622,
        0.049997020150056,  0.052034421936698,  0.053878252313044,
        0.055521652095739,  0.056958507720259,  0.058183473982593,
        0.059191993922961,  0.059980315777504,  0.060545506934737,
        0.060885464844856,  0.060998924841206,  0.060885464844856,
        0.060545506934738,  0.059980315777503,  0.059191993922961,
        0.058183473982592,  0.056958507720258,  0.05552165209574 ,
        0.053878252313046,  0.052034421936697,  0.049997020150058,
        0.047773626240624,  0.045372511407649,  0.042802607997881,
        0.040073476285496,  0.037195268923259,  0.034178693204188,
        0.031034971290163,  0.027775798594162,  0.024413300573782,
        0.020959988401704,  0.017428714723402,  0.013832634006478,
        0.010185191297824,  0.006500337783251,  0.002796807171088};
#endif

#if QUAD_ORDER == 52
const double host_legendre_points[] = {
       -0.998951111103949, -0.994477590929216, -0.986446195651549,
       -0.974883884221745, -0.959831826933086, -0.941343853641359,
       -0.919486128916425, -0.894336890534495, -0.865986162846066,
       -0.834535432326734, -0.800097283430467, -0.762794995193745,
       -0.722762099749984, -0.680141904227167, -0.635086977695246,
       -0.587758604979577, -0.538326209285827, -0.486966745698096,
       -0.433864067718762, -0.379208269116094, -0.323195003434809,
       -0.266024783605002, -0.207902264156366, -0.149035508606949,
       -0.0896352446489  , -0.029914109797339,  0.029914109797339,
        0.089635244648901,  0.149035508606949,  0.207902264156365,
        0.266024783605001,  0.323195003434809,  0.379208269116094,
        0.433864067718762,  0.486966745698096,  0.538326209285828,
        0.587758604979578,  0.635086977695246,  0.680141904227168,
        0.722762099749984,  0.762794995193746,  0.800097283430469,
        0.834535432326734,  0.865986162846067,  0.894336890534494,
        0.919486128916423,  0.941343853641361,  0.959831826933088,
        0.974883884221747,  0.986446195651552,  0.994477590929219,
        0.99895111110395 };
const double host_gauss_weights[] = {
        0.002691316950047,  0.006255523962972,  0.009802634579464,
        0.013315114982339,  0.016780023396302,  0.020184891507985,
        0.023517513553985,  0.026765953746503,  0.029918581147142,
        0.032964109089718,  0.035891634835096,  0.038690678310426,
        0.041351219500561,  0.043863734258999,  0.046219228372784,
        0.048409269744072,  0.050426018566344,  0.052262255383907,
        0.053911406932758,  0.055367569669301,  0.056625530902367,
        0.057680787452528,  0.058529561771813,  0.059168815466043,
        0.059596260171248,  0.059810365745292,  0.059810365745292,
        0.059596260171248,  0.059168815466043,  0.058529561771815,
        0.057680787452527,  0.056625530902368,  0.055367569669303,
        0.053911406932758,  0.052262255383907,  0.050426018566342,
        0.048409269744074,  0.046219228372784,  0.043863734259   ,
        0.041351219500561,  0.038690678310423,  0.035891634835098,
        0.03296410908972 ,  0.029918581147145,  0.026765953746504,
        0.023517513553983,  0.020184891507981,  0.0167800233963  ,
        0.013315114982343,  0.009802634579462,  0.006255523962977,
        0.002691316950042};
#endif

#if QUAD_ORDER == 53
const double host_legendre_points[] = {
        -9.989899477763270e-01,  -9.946819193080062e-01,
        -9.869470350233716e-01,  -9.758102337149849e-01,
        -9.613096946231366e-01,  -9.434953534644421e-01,
        -9.224286030428109e-01,  -8.981820578754267e-01,
        -8.708392975582397e-01,  -8.404945765458013e-01,
        -8.072524984168954e-01,  -7.712276549255329e-01,
        -7.325442308075113e-01,  -6.913355756013668e-01,
        -6.477437439165127e-01,  -6.019190057137703e-01,
        -5.540193282770677e-01,  -5.042098316571333e-01,
        -4.526622194618457e-01,  -3.995541869539541e-01,
        -3.450688084957229e-01,  -2.893939064516263e-01,
        -2.327214037242725e-01,  -1.752466621553250e-01,
        -1.171678090719554e-01,  -5.868505430025955e-02,
         1.480079404619414e-16,   5.868505430025912e-02,
         1.171678090719546e-01,   1.752466621553254e-01,
         2.327214037242720e-01,   2.893939064516259e-01,
         3.450688084957228e-01,   3.995541869539513e-01,
         4.526622194618456e-01,   5.042098316571336e-01,
         5.540193282770676e-01,   6.019190057137692e-01,
         6.477437439165101e-01,   6.913355756013668e-01,
         7.325442308075095e-01,   7.712276549255338e-01,
         8.072524984168952e-01,   8.404945765458007e-01,
         8.708392975582426e-01,   8.981820578754270e-01,
         9.224286030428120e-01,   9.434953534644418e-01,
         9.613096946231355e-01,   9.758102337149853e-01,
         9.869470350233726e-01,   9.946819193080068e-01,
         9.989899477763281e-01};
const double host_gauss_weights[] = {
        0.002591683720564,  0.006024276226952,  0.009441202284942,
        0.012826026144241,  0.016166725256687,  0.019451721107637,
        0.022669673057068,  0.025809482510759,  0.028860323617824,
        0.031811678459019,  0.034653372583533,  0.037375609803486,
        0.039969005843542,  0.04242462063452 ,  0.044733989103677,
        0.046889150340748,  0.048882675032696,  0.050707691069289,
        0.052357907229874,  0.053827634868733,  0.055111807523934,
        0.056205998381739,  0.057106435536266,  0.057810014991712,
        0.058314311362257,  0.05861758623272 ,  0.058718794151164,
        0.058617586232721,  0.058314311362257,  0.057810014991713,
        0.057106435536266,  0.056205998381741,  0.055111807523933,
        0.053827634868731,  0.052357907229873,  0.050707691069294,
        0.048882675032699,  0.04688915034075 ,  0.044733989103673,
        0.042424620634519,  0.039969005843539,  0.037375609803484,
        0.034653372583535,  0.031811678459018,  0.028860323617825,
        0.025809482510758,  0.022669673057072,  0.019451721107635,
        0.016166725256687,  0.012826026144241,  0.009441202284942,
        0.006024276226948,  0.002591683720567};
#endif

#if QUAD_ORDER == 54
const double host_legendre_points[] = {
       -0.999026666867341, -0.994875117018339, -0.987420637397344,
       -0.976686328857904, -0.962707645785924, -0.945530975164995,
       -0.925213359866651, -0.901822286284702, -0.875435454065569,
       -0.846140515970774, -0.814034785913567, -0.779224915346254,
       -0.741826538809185, -0.701963889719174, -0.659769387631984,
       -0.615383198331128, -0.568952768195209, -0.520632334385932,
       -0.470582412481383, -0.418969263255204, -0.365964340372192,
       -0.311743720834469, -0.256487520069998, -0.200379293606213,
       -0.143605427316257, -0.086354518263248, -0.028816748199342,
        0.028816748199342,  0.086354518263248,  0.143605427316256,
        0.200379293606214,  0.256487520069998,  0.311743720834469,
        0.365964340372192,  0.418969263255204,  0.470582412481383,
        0.520632334385934,  0.568952768195209,  0.615383198331126,
        0.659769387631983,  0.701963889719173,  0.741826538809184,
        0.779224915346252,  0.814034785913567,  0.846140515970772,
        0.875435454065567,  0.901822286284702,  0.925213359866651,
        0.945530975164996,  0.962707645785922,  0.976686328857904,
        0.987420637397344,  0.99487511701834 ,  0.999026666867341};
const double host_gauss_weights[] = {
        0.002497481835759,  0.00580561101524 ,  0.009099369455509,
        0.012363328128849,  0.015586303035924,  0.018757527621468,
        0.021866451422853,  0.024902741467213,  0.027856309310597,
        0.030717342497869,  0.033476336464373,  0.036124125840388,
        0.038651914782102,  0.041051306136647,  0.043314329309595,
        0.045433466728277,  0.047401678806444,  0.04921242732453 ,
        0.050859697146188,  0.052338016198299,  0.053642473647553,
        0.054768736213058,  0.05571306256059 ,  0.056472315730625,
        0.057043973558795,  0.057426137054112,  0.057617536707147,
        0.057617536707146,  0.057426137054112,  0.057043973558794,
        0.056472315730626,  0.055713062560591,  0.054768736213058,
        0.053642473647554,  0.052338016198299,  0.050859697146187,
        0.049212427324529,  0.047401678806445,  0.045433466728276,
        0.043314329309597,  0.041051306136647,  0.038651914782103,
        0.036124125840383,  0.033476336464371,  0.03071734249787 ,
        0.027856309310595,  0.024902741467208,  0.021866451422855,
        0.018757527621469,  0.015586303035923,  0.012363328128848,
        0.00909936945551 ,  0.005805611015243,  0.00249748183576 };
#endif

#if QUAD_ORDER == 55
const double host_legendre_points[] = {
        -9.990614195648183e-01,  -9.950579778474123e-01,
        -9.878689411988898e-01,  -9.775157355039908e-01,
        -9.640313285931364e-01,  -9.474588680412114e-01,
        -9.278514247207922e-01,  -9.052718007440010e-01,
        -8.797923224198970e-01,  -8.514946066171547e-01,
        -8.204692985593197e-01,  -7.868157811276225e-01,
        -7.506418563480224e-01,  -7.120633999866374e-01,
        -6.712039903198252e-01,  -6.281945122499275e-01,
        -5.831727380260318e-01,  -5.362828859083436e-01,
        -4.876751581874746e-01,  -4.375052600371755e-01,
        -3.859339007409793e-01,  -3.331262788900227e-01,
        -2.792515532008065e-01,  -2.244823006478456e-01,
        -1.689939636468728e-01,  -1.129642880593291e-01,
        -5.657275381833679e-02,  -5.513134659746781e-17,
         5.657275381833659e-02,   1.129642880593289e-01,
         1.689939636468732e-01,   2.244823006478453e-01,
         2.792515532008070e-01,   3.331262788900253e-01,
         3.859339007409786e-01,   4.375052600371745e-01,
         4.876751581874740e-01,   5.362828859083434e-01,
         5.831727380260320e-01,   6.281945122499277e-01,
         6.712039903198250e-01,   7.120633999866370e-01,
         7.506418563480221e-01,   7.868157811276227e-01,
         8.204692985593214e-01,   8.514946066171556e-01,
         8.797923224198956e-01,   9.052718007440012e-01,
         9.278514247207929e-01,   9.474588680412112e-01,
         9.640313285931360e-01,   9.775157355039876e-01,
         9.878689411988910e-01,   9.950579778474138e-01,
         9.990614195648188e-01};
const double host_gauss_weights[] = {
        0.002408323619979,  0.005598632266559,  0.008775746107058,
        0.011925160719854,  0.015036458333509,  0.018099614520728,
        0.021104801668019,  0.024042388009725,  0.026902961456395,
        0.029677357765162,  0.032356689226186,  0.034932372873592,
        0.037396157867966,  0.039740151874336,  0.041956846317719,
        0.044039140421606,  0.045980363946285,  0.047774298551201,
        0.049415197711553,  0.050897805124493,  0.05221737154563 ,
        0.053369670001605,  0.054351009329911,  0.055158246002508,
        0.055788794195285,  0.056240634071084,  0.056512318249772,
        0.05660297644456 ,  0.056512318249772,  0.056240634071084,
        0.055788794195284,  0.055158246002509,  0.054351009329911,
        0.053369670001605,  0.052217371545633,  0.050897805124493,
        0.049415197711552,  0.0477742985512  ,  0.045980363946285,
        0.044039140421607,  0.041956846317719,  0.039740151874336,
        0.037396157867966,  0.034932372873588,  0.032356689226185,
        0.029677357765163,  0.026902961456396,  0.024042388009726,
        0.021104801668017,  0.018099614520731,  0.015036458333509,
        0.011925160719847,  0.008775746107063,  0.005598632266557,
        0.002408323619981};
#endif

#if QUAD_ORDER == 56
const double host_legendre_points[] = {
       -0.999094343801468, -0.995231226081072, -0.988293715540162,
       -0.978301709140257, -0.965285901905492, -0.949286479561963,
       -0.930352880247497, -0.908543620420657, -0.883926108327826,
       -0.856576433762749, -0.826579132142882, -0.794026922893867,
       -0.759020422705129, -0.721667834450188, -0.682084612694471,
       -0.640393106807008, -0.596722182770664, -0.551206824855535,
       -0.503987718384382, -0.455210814878459, -0.405026880927091,
       -0.353591032174955, -0.30106225386722 , -0.247602909434337,
       -0.193378238635275, -0.138555846810376, -0.083305186822435,
       -0.027797035287275,  0.027797035287275,  0.083305186822435,
        0.138555846810377,  0.193378238635275,  0.247602909434337,
        0.30106225386722 ,  0.353591032174955,  0.40502688092709 ,
        0.455210814878459,  0.503987718384382,  0.551206824855535,
        0.596722182770663,  0.640393106807007,  0.682084612694471,
        0.721667834450188,  0.75902042270513 ,  0.794026922893868,
        0.826579132142881,  0.856576433762749,  0.883926108327827,
        0.908543620420656,  0.930352880247496,  0.949286479561964,
        0.96528590190549 ,  0.978301709140256,  0.988293715540162,
        0.99523122608107 ,  0.999094343801466};
const double host_gauss_weights[] = {
        0.002323855375771,  0.005402522246017,  0.008469063163306,
        0.01150982434039 ,  0.014515089278021,  0.017475512911397,
        0.020381929882404,  0.023225351562565,  0.025996987058392,
        0.028688268473823,  0.031290876747309,  0.033796767115613,
        0.036198193872314,  0.03848773425925 ,  0.040658311384745,
        0.042703216084667,  0.044616127652692,  0.046391133373003,
        0.048022746793599,  0.049505924683047,  0.050836082617799,
        0.052009109151743,  0.053021378524011,  0.053869761865714,
        0.05455163687089 ,  0.055064895901762,  0.055407952503245,
        0.055579746306515,  0.055579746306514,  0.055407952503246,
        0.055064895901761,  0.05455163687089 ,  0.053869761865714,
        0.053021378524011,  0.052009109151742,  0.050836082617799,
        0.049505924683049,  0.048022746793599,  0.046391133373003,
        0.044616127652691,  0.042703216084668,  0.040658311384745,
        0.038487734259247,  0.036198193872315,  0.033796767115613,
        0.031290876747309,  0.028688268473824,  0.025996987058391,
        0.023225351562569,  0.020381929882398,  0.017475512911404,
        0.01451508927802 ,  0.011509824340385,  0.008469063163309,
        0.005402522246015,  0.002323855375772};
#endif

#if QUAD_ORDER == 57
const double host_legendre_points[] = {
        -9.991255656252630e-01,  -9.953955236784314e-01,
        -9.886965776502209e-01,  -9.790472267094695e-01,
        -9.664760851718860e-01,  -9.510206264478763e-01,
        -9.327269610671005e-01,  -9.116496785213903e-01,
        -8.878516788822204e-01,  -8.614039832620467e-01,
        -8.323855211504388e-01,  -8.008828945472173e-01,
        -7.669901193594505e-01,  -7.308083447445232e-01,
        -6.924455511995165e-01,  -6.520162282809775e-01,
        -6.096410329087156e-01,  -5.654464292692369e-01,
        -5.195643113911869e-01,  -4.721316095179756e-01,
        -4.232898814515645e-01,  -3.731848900865942e-01,
        -3.219661683953790e-01,  -2.697865731618380e-01,
        -2.168018287961232e-01,  -1.631700625912637e-01,
        -1.090513328087880e-01,  -5.460715100164698e-02,
        -1.288719590084542e-16,   5.460715100164693e-02,
         1.090513328087877e-01,   1.631700625912638e-01,
         2.168018287961237e-01,   2.697865731618391e-01,
         3.219661683953792e-01,   3.731848900865946e-01,
         4.232898814515638e-01,   4.721316095179751e-01,
         5.195643113911872e-01,   5.654464292692365e-01,
         6.096410329087153e-01,   6.520162282809771e-01,
         6.924455511995190e-01,   7.308083447445237e-01,
         7.669901193594497e-01,   8.008828945472171e-01,
         8.323855211504375e-01,   8.614039832620455e-01,
         8.878516788822219e-01,   9.116496785213914e-01,
         9.327269610671004e-01,   9.510206264478760e-01,
         9.664760851718861e-01,   9.790472267094684e-01,
         9.886965776502213e-01,   9.953955236784284e-01,
         9.991255656252627e-01};
const double host_gauss_weights[] = {
        0.002243753872254,  0.005216533474721,  0.008178160067821,
        0.011115763732335,  0.01402027079075 ,  0.016882959023441,
        0.019695270699489,  0.02244880789078 ,  0.025135350990916,
        0.027746881402181,  0.030275604842694,  0.032713974366376,
        0.035054712782312,  0.037290834324414,  0.039415665475479,
        0.041422864870804,  0.043306442216215,  0.045060776161382,
        0.04668063107364 ,  0.048161172661688,  0.049497982402021,
        0.050687070724928,  0.051724888920519,  0.052608339729174,
        0.05333478658482 ,  0.053902061483299,  0.0543084714525  ,
        0.054552803604762,  0.054634328756584,  0.054552803604762,
        0.054308471452499,  0.053902061483298,  0.053334786584819,
        0.052608339729177,  0.051724888920518,  0.050687070724927,
        0.04949798240202 ,  0.048161172661688,  0.046680631073641,
        0.045060776161381,  0.043306442216215,  0.041422864870801,
        0.039415665475481,  0.037290834324417,  0.035054712782314,
        0.032713974366372,  0.030275604842693,  0.027746881402178,
        0.02513535099092 ,  0.022448807890777,  0.01969527069949 ,
        0.016882959023442,  0.014020270790753,  0.011115763732336,
        0.008178160067823,  0.005216533474719,  0.002243753872249};
#endif

#if QUAD_ORDER == 58
const double host_legendre_points[] = {
       -0.999155200407386, -0.99555147659729 , -0.989079008248442,
       -0.97975501469435 , -0.967606202502924, -0.952667557518871,
       -0.934982137588259, -0.914600928564354, -0.89158269202203 ,
       -0.865993794074809, -0.837908013339374, -0.807406327913089,
       -0.774576681749652, -0.739513731020043, -0.70231857115391 ,
       -0.663098445332126, -0.62196643526308 , -0.579041135130226,
       -0.534446309648847, -0.48831053721672 , -0.44076683918684 ,
       -0.391952296330753, -0.342007653597996, -0.291076914311109,
       -0.239306924966154, -0.186846951835761, -0.133848250595467,
       -0.080463630214143, -0.026847012365942,  0.026847012365943,
        0.080463630214143,  0.133848250595467,  0.186846951835761,
        0.239306924966154,  0.291076914311108,  0.342007653597995,
        0.391952296330753,  0.440766839186839,  0.488310537216718,
        0.534446309648847,  0.579041135130225,  0.621966435263079,
        0.663098445332126,  0.702318571153908,  0.739513731020041,
        0.774576681749653,  0.807406327913087,  0.837908013339372,
        0.865993794074806,  0.891582692022029,  0.914600928564351,
        0.934982137588258,  0.952667557518869,  0.967606202502923,
        0.979755014694349,  0.98907900824844 ,  0.995551476597288,
        0.999155200407382};
const double host_gauss_weights[] = {
        0.002167723249625,  0.00503998161265 ,  0.007901973849999,
        0.010741553532879,  0.013550237112988,  0.016319874234973,
        0.019042465461894,  0.021710156140146,  0.024315252724962,
        0.026850243181983,  0.02930781804416 ,  0.03168089125381 ,
        0.033962620493413,  0.036146426867089,  0.03822601384586 ,
        0.040195385409869,  0.042048863329582,  0.043781103533639,
        0.04538711151482 ,  0.046862256729027,  0.048202285945417,
        0.049403335508963,  0.050461942479955,  0.051375054618286,
        0.05214003918367 ,  0.052754690526369,  0.053217236446579,
        0.053526343304058,  0.053681119863335,  0.053681119863335,
        0.053526343304057,  0.053217236446579,  0.052754690526371,
        0.052140039183669,  0.051375054618286,  0.050461942479953,
        0.049403335508963,  0.048202285945418,  0.046862256729027,
        0.045387111514819,  0.043781103533639,  0.042048863329582,
        0.04019538540987 ,  0.038226013845861,  0.036146426867085,
        0.033962620493416,  0.031680891253808,  0.029307818044158,
        0.026850243181984,  0.024315252724966,  0.021710156140144,
        0.019042465461892,  0.01631987423497 ,  0.013550237112992,
        0.010741553532879,  0.007901973849998,  0.005039981612653,
        0.002167723249626};
#endif

#if QUAD_ORDER == 59
const double host_legendre_points[] = {
        -9.991833539092947e-01,  -9.956996403832447e-01,
        -9.894423651337317e-01,  -9.804275739567171e-01,
        -9.686802216817808e-01,  -9.542330093769523e-01,
        -9.371261903534540e-01,  -9.174074387881551e-01,
        -8.951317117434732e-01,  -8.703610942928817e-01,
        -8.431646258168727e-01,  -8.136181072882127e-01,
        -7.818038898623613e-01,  -7.478106452786405e-01,
        -7.117331186771990e-01,  -6.736718645049383e-01,
        -6.337329662388527e-01,  -5.920277407040317e-01,
        -5.486724278083969e-01,  -5.037878665577179e-01,
        -4.574991582532669e-01,  -4.099353178104198e-01,
        -3.612289141697944e-01,  -3.115157008030132e-01,
        -2.609342373428111e-01,  -2.096255033920372e-01,
        -1.577325055878582e-01,  -1.053998790163442e-01,
        -5.277348408831005e-02,  -2.307485194235583e-16,
         5.277348408830983e-02,   1.053998790163443e-01,
         1.577325055878579e-01,   2.096255033920367e-01,
         2.609342373428127e-01,   3.115157008030133e-01,
         3.612289141697951e-01,   4.099353178104179e-01,
         4.574991582532672e-01,   5.037878665577185e-01,
         5.486724278083963e-01,   5.920277407040302e-01,
         6.337329662388513e-01,   6.736718645049383e-01,
         7.117331186771977e-01,   7.478106452786403e-01,
         7.818038898623622e-01,   8.136181072882112e-01,
         8.431646258168727e-01,   8.703610942928807e-01,
         8.951317117434712e-01,   9.174074387881529e-01,
         9.371261903534533e-01,   9.542330093769490e-01,
         9.686802216817800e-01,   9.804275739567151e-01,
         9.894423651337302e-01,   9.956996403832459e-01,
         9.991833539092937e-01};
const double host_gauss_weights[] = {
        0.002095492284534,  0.004872239168267,  0.007639529453493,
        0.010385885500996,  0.013103366306343,  0.015784347313082,
        0.018421342753608,  0.021006998288437,  0.023534105393718,
        0.0259956197313  ,  0.028384680200535,  0.030694627836111,
        0.032919024271045,  0.035051669636401,  0.037086619818873,
        0.03901820301616 ,  0.040841035538689,  0.042550036811068,
        0.044140443530296,  0.045607822940511,  0.046948085186963,
        0.048157494714607,  0.04923268067936 ,  0.050170646342995,
        0.050968777425396,  0.051624849390891,  0.052137033648375,
        0.052503902647829,  0.052724433859127,  0.052798012621991,
        0.052724433859128,  0.052503902647828,  0.052137033648376,
        0.051624849390892,  0.050968777425393,  0.050170646342997,
        0.049232680679363,  0.048157494714606,  0.046948085186962,
        0.04560782294051 ,  0.044140443530297,  0.042550036811068,
        0.040841035538687,  0.039018203016161,  0.037086619818873,
        0.035051669636399,  0.032919024271045,  0.030694627836113,
        0.028384680200534,  0.025995619731298,  0.023534105393714,
        0.021006998288439,  0.01842134275361 ,  0.015784347313081,
        0.013103366306345,  0.010385885500993,  0.007639529453489,
        0.004872239168266,  0.00209549228454 };
#endif

#if QUAD_ORDER == 60
const double host_legendre_points[] = {
       -0.999210123227437, -0.995840525118839, -0.989787895222221,
       -0.981067201752598, -0.969701788765053, -0.955722255839996,
       -0.939166276116423, -0.920078476177627, -0.898510310810046,
       -0.874519922646898, -0.84817198478593 , -0.819537526162145,
       -0.788693739932265, -0.755723775306587, -0.72071651335573 ,
       -0.683766327381354, -0.644972828489477, -0.60444059704851 ,
       -0.562278900753943, -0.518601400058569, -0.473525841761706,
       -0.427173741583078, -0.379670056576798, -0.331142848268449,
       -0.281722937423263, -0.231543551376029, -0.180739964873425,
       -0.129449135396945, -0.077809333949537, -0.025959772301248,
        0.025959772301248,  0.077809333949537,  0.129449135396945,
        0.180739964873426,  0.231543551376029,  0.281722937423261,
        0.331142848268448,  0.379670056576799,  0.427173741583078,
        0.473525841761707,  0.518601400058569,  0.562278900753944,
        0.604440597048511,  0.644972828489477,  0.683766327381354,
        0.72071651335573 ,  0.755723775306585,  0.788693739932264,
        0.819537526162144,  0.848171984785928,  0.874519922646897,
        0.898510310810046,  0.920078476177628,  0.939166276116423,
        0.955722255839996,  0.969701788765052,  0.981067201752598,
        0.989787895222221,  0.995840525118838,  0.999210123227434};
const double host_gauss_weights[] = {
        0.002026811968873,  0.004712729926952,  0.007389931163346,
        0.01004755718229 ,  0.012678166476819,  0.015274618596784,
        0.017829901014206,  0.020337120729456,  0.022789516943998,
        0.025180477621522,  0.027503556749926,  0.02975249150079 ,
        0.031921219019301,  0.034003892724944,  0.035994898051082,
        0.037888867569243,  0.039680695452382,  0.041365551235584,
        0.042938892835935,  0.044396478795788,  0.045734379716112,
        0.046948988848911,  0.048037031819972,  0.048995575455758,
        0.04982203569055 ,  0.050514184532509,  0.051070156069855,
        0.051488451500981,  0.05176794317491 ,  0.051907877631221,
        0.05190787763122 ,  0.05176794317491 ,  0.051488451500981,
        0.051070156069856,  0.050514184532511,  0.04982203569055 ,
        0.048995575455756,  0.048037031819971,  0.046948988848913,
        0.045734379716115,  0.044396478795786,  0.042938892835934,
        0.041365551235586,  0.039680695452382,  0.037888867569243,
        0.035994898051084,  0.034003892724947,  0.031921219019297,
        0.02975249150079 ,  0.027503556749926,  0.025180477621521,
        0.022789516943997,  0.020337120729458,  0.017829901014208,
        0.015274618596785,  0.012678166476818,  0.010047557182286,
        0.007389931163346,  0.004712729926952,  0.002026811968874};
#endif

#if QUAD_ORDER == 61
const double host_legendre_points[] = {
        -9.992355976313623e-01,  -9.959745998151195e-01,
        -9.901167452325169e-01,  -9.816760112840361e-01,
        -9.706742588331824e-01,  -9.571401519129826e-01,
        -9.411089866813586e-01,  -9.226225813829543e-01,
        -9.017291624740011e-01,  -8.784832372148795e-01,
        -8.529454508476639e-01,  -8.251824281086594e-01,
        -7.952665992823608e-01,  -7.632760111723124e-01,
        -7.292941234494668e-01,  -6.934095908944922e-01,
        -6.557160320950717e-01,  -6.163117851979226e-01,
        -5.752996513508302e-01,  -5.327866265029241e-01,
        -4.888836222622514e-01,  -4.437051765385318e-01,
        -3.973691547257573e-01,  -3.499964422040664e-01,
        -3.017106289630304e-01,  -2.526376871690525e-01,
        -2.029056425180583e-01,  -1.526442402308155e-01,
        -1.019846065622743e-01,  -5.105890670797455e-02,
        -2.822189138961345e-18,   5.105890670797440e-02,
         1.019846065622740e-01,   1.526442402308153e-01,
         2.029056425180589e-01,   2.526376871690534e-01,
         3.017106289630312e-01,   3.499964422040668e-01,
         3.973691547257568e-01,   4.437051765385322e-01,
         4.888836222622525e-01,   5.327866265029257e-01,
         5.752996513508321e-01,   6.163117851979220e-01,
         6.557160320950701e-01,   6.934095908944907e-01,
         7.292941234494652e-01,   7.632760111723115e-01,
         7.952665992823583e-01,   8.251824281086602e-01,
         8.529454508476628e-01,   8.784832372148804e-01,
         9.017291624739998e-01,   9.226225813829544e-01,
         9.411089866813600e-01,   9.571401519129851e-01,
         9.706742588331827e-01,   9.816760112840384e-01,
         9.901167452325185e-01,   9.959745998151208e-01,
         9.992355976313647e-01};
const double host_gauss_weights[] = {
        0.001961453361667,  0.004560924006009,  0.007152354991753,
        0.009725461830358,  0.012273263507811,  0.014789065884938,
        0.017266292987616,  0.019698477746101,  0.02207927314832 ,
        0.024402467187545,  0.026661998524151,  0.02885197208818 ,
        0.030966674368399,  0.033000588275906,  0.034948407516536,
        0.036805050423155,  0.038565673207009,  0.040225682591   ,
        0.041780747790888,  0.043226811812494,  0.044560102035084,
        0.045777140053145,  0.04687475075081 ,  0.047850070585096,
        0.048700555056413,  0.049423985346734,  0.050018474108178,
        0.050482470386798,  0.050814763668818,  0.051014487038697,
        0.051081119440786,  0.051014487038697,  0.050814763668818,
        0.050482470386797,  0.050018474108177,  0.049423985346736,
        0.048700555056412,  0.047850070585096,  0.046874750750809,
        0.045777140053146,  0.044560102035084,  0.043226811812496,
        0.041780747790888,  0.040225682590999,  0.038565673207007,
        0.036805050423156,  0.034948407516532,  0.033000588275906,
        0.030966674368398,  0.028851972088184,  0.026661998524149,
        0.024402467187542,  0.02207927314832 ,  0.019698477746101,
        0.017266292987614,  0.014789065884938,  0.012273263507811,
        0.009725461830356,  0.007152354991749,  0.004560924006012,
        0.001961453361672};
#endif

#if QUAD_ORDER == 62
const double host_legendre_points[] = {
       -0.999259859308777, -0.996102296316266, -0.990429971189289,
       -0.982255949097236, -0.97160072337165 , -0.958491172973926,
       -0.942960401392328, -0.925047635636203, -0.904798122521093,
       -0.882263012831896, -0.857499231512068, -0.830569333604004,
       -0.801541346103975, -0.770488596055421, -0.737489525283158,
       -0.702627492222297, -0.66599056133548 , -0.627671280646885,
       -0.587766447953088, -0.54637686630025 , -0.503607089344757,
       -0.459565157240114, -0.414362323717126, -0.368112775046564,
       -0.320933341594194, -0.272943202696726, -0.224263585604165,
       -0.175017459249016, -0.125329223615897, -0.075324395496234,
       -0.02512929142182 ,  0.025129291421821,  0.075324395496234,
        0.125329223615897,  0.175017459249015,  0.224263585604166,
        0.272943202696728,  0.320933341594193,  0.368112775046563,
        0.414362323717125,  0.459565157240113,  0.503607089344755,
        0.546376866300251,  0.587766447953087,  0.627671280646884,
        0.66599056133548 ,  0.702627492222297,  0.737489525283156,
        0.770488596055419,  0.801541346103975,  0.830569333604005,
        0.85749923151207 ,  0.882263012831896,  0.904798122521094,
        0.925047635636204,  0.942960401392329,  0.958491172973926,
        0.971600723371653,  0.982255949097236,  0.990429971189289,
        0.996102296316267,  0.999259859308775};
const double host_gauss_weights[] = {
        0.001899205679513,  0.00441633345693 ,  0.006926041901832,
        0.009418579428423,  0.011887390117011,  0.014326191823805,
        0.016728811790176,  0.019089176658573,  0.021401322277673,
        0.02365940720868 ,  0.025857726954023,  0.027990728163316,
        0.03005302257399 ,  0.032039400581627,  0.033944844379412,
        0.035764540622767,  0.037493892582279,  0.039128531751962,
        0.040664328882419,  0.042097404410384,  0.043424138258049,
        0.044641178977124,  0.04574545221457 ,  0.046734168478415,
        0.047604830184101,  0.048355237963477,  0.048983496220518,
        0.049488017919699,  0.049867528594952,  0.050121069569043,
        0.050248000375256,  0.050248000375256,  0.050121069569043,
        0.049867528594953,  0.049488017919699,  0.048983496220518,
        0.048355237963478,  0.047604830184101,  0.046734168478416,
        0.045745452214571,  0.044641178977124,  0.043424138258048,
        0.042097404410384,  0.040664328882417,  0.039128531751964,
        0.037493892582279,  0.035764540622768,  0.033944844379411,
        0.032039400581624,  0.030053022573991,  0.027990728163315,
